4039 64
3437 0.43314844 -0.33919075 0.66235566 -0.22566958 -0.11779609 0.12057247 -0.20417531 0.7046809 -0.42341065 0.588141 0.18691845 -0.24686824 -0.34411505 -0.4970688 -0.41883898 0.23936656 -0.85254383 -0.4919455 -0.04320472 -0.19430932 0.7569139 0.4645968 0.60272634 0.33821455 0.40317836 -0.089747764 -0.48483375 0.3984645 -0.3547536 0.24597381 0.43936473 0.43813744 0.2537111 0.19868782 -0.34049687 -0.45724896 0.13694605 0.36020172 0.16793317 -0.4237824 -0.064062044 -0.3403492 -0.60087967 0.2141968 0.17529649 -0.6106074 0.18212858 -0.12302417 0.53160787 -0.31808308 -0.2229581 -0.0022472916 -0.0363062 -0.23437595 0.18912536 -0.26588413 0.2743792 -0.5948891 -0.95958304 0.5324922 -0.8834912 -0.24244183 -0.29917273 -0.40338865
107 -0.00073320436 -0.09407856 0.2493379 -0.0419063 -0.32282683 -0.36895326 0.012841941 0.25792152 0.0025380608 -0.18065502 0.3150734 -0.07297698 -0.0057200077 -0.2942437 0.3339357 -0.16986297 -0.80752337 0.3204878 0.33901918 0.12972175 0.2230227 -0.012202909 0.19097506 -0.50094575 -0.07807111 0.17949875 0.12209496 0.25276533 -0.03289153 -0.2103401 0.55662113 0.09246041 -0.105624154 0.3172448 0.04798131 0.48730758 -0.736635 0.16531004 0.07338616 0.40751597 0.1038542 -0.41401184 -0.2532847 0.034592338 0.6133305 -0.20784196 -0.20601487 -0.35905507 -0.084046446 0.7000985 0.39258704 -0.15961534 -0.26290488 0.03162279 0.35395265 0.11692937 -0.04214438 -0.7142218 -0.7936279 -0.11485465 -0.033406712 0.0030126092 0.044078477 0.3811106
1684 0.08641443 0.11554788 0.46934393 -0.14787273 -0.085300624 0.23362088 0.2336331 0.35253727 -0.033983625 0.09041321 0.9175322 0.5381285 0.023843601 -0.18739644 -0.08511551 0.19824997 0.021516338 0.8054226 0.22426961 0.41739762 0.8964822 0.119708315 0.5109484 -0.4072011 -0.2348054 0.18110335 -0.6092684 0.4352376 0.3815295 0.23721537 0.15544158 -0.28498426 0.4665726 0.6832046 -0.37850213 -0.4130244 -0.62230724 -0.30026805 0.09946551 -0.08770298 -0.047124766 0.4030457 -0.653136 -0.014836844 0.29726422 0.13711107 -0.23531388 -0.66277474 0.017876614 0.015273576 0.36470163 -0.3849805 0.27128232 -0.28757197 0.47479844 0.16260682 0.35773665 -0.09656217 -0.4212448 0.17265211 -0.2472008 0.29332227 0.16876625 -0.20598707
0 0.5851225 -0.8140669 -0.20169236 -0.45583498 0.36342502 -0.648735 -0.63064855 0.60032505 0.35272524 0.026793072 0.11595023 -0.14030427 -0.28032508 0.018001545 0.38472477 0.47882834 -0.41080472 0.44488364 0.23118405 0.1713701 1.2475171 0.35240012 0.6690203 -0.9493823 0.31087202 0.69646066 -0.33922753 0.12932086 -0.22874123 -0.47936675 0.2127529 -0.08204939 0.098881826 -0.34338868 -0.002469872 -0.1793053 -0.1821472 -0.15130673 -0.20145851 -0.32245418 -0.4821697 0.013941873 -0.80130965 0.10716535 0.52294177 0.23906745 0.24230717 -0.37154108 -0.34242055 -0.20545673 -0.16737515 0.14648716 0.046213437 0.5661795 0.8631976 0.2045971 -0.15294474 -0.15110143 -0.28163326 -0.07993104 -0.7725873 -0.49265638 0.033859186 -0.45420024
1912 0.16639856 -0.20071098 -0.023887046 -0.039530173 -0.315912 -0.040152006 -0.22617564 0.14063618 -0.8709917 0.8691041 0.4653467 0.34602702 0.10261321 -0.7008837 0.5175021 0.2224903 -0.6295347 0.20877714 -0.25954056 0.26705402 0.93320584 0.15151507 0.13888578 -0.57079375 0.3190022 0.3553071 -0.24806601 0.23497815 -0.102423556 0.107198484 -0.2524638 -0.0047981343 0.36404717 -0.4113327 0.45585063 1.148805 -0.011498692 -0.6699953 -0.2780339 -0.1549592 0.23129249 -0.16383807 -0.1830002 -0.023651939 -0.1143632 -0.052703 -0.162264 -0.43697292 0.2544703 -0.49883637 -0.3537526 0.2725345 0.5057242 -0.060164593 0.8465889 0.36039272 -0.3300341 -0.44071895 -0.076808564 0.009104578 -0.028908174 0.061341338 -0.5711032 -0.3868039
686 0.0028464764 -0.25145036 0.4178436 0.5069384 -0.394328 -0.43893135 -0.41701904 -0.014912083 -0.28769147 1.0116706 0.90977037 -0.87252754 -0.58889973 0.19198465 0.0013504213 0.52271414 0.42238024 0.053643145 -0.016591452 1.0219951 0.92081565 0.5681698 0.6194967 -0.5959688 0.028412962 0.12963563 -0.49218595 0.6062037 -0.19430865 -0.18846759 -0.13714966 0.05261967 -0.009936212 -0.44464254 -0.45335582 0.22438104 0.14505923 -0.49203113 0.60683537 -0.2791853 -0.24049814 0.0036018428 -0.7491107 0.33523113 -0.007891174 -0.48584825 -0.03677597 -0.04074613 0.3286359 -0.37753242 0.26409015 -0.6545893 -0.38270065 0.47264037 0.24603526 0.0939138 -0.57307565 -0.4755127 -0.8825202 0.9958146 -1.0556391 0.4850025 0.013333199 0.3485306
3980 -0.19409436 -0.65586233 1.1530267 0.2617546 -0.049890343 -1.2494025 -0.5884267 -0.24994405 -0.82124156 0.519152 0.7313237 -0.27064344 0.47999 -1.050942 -0.2366253 0.3295602 -0.79764956 0.48558366 -0.63130695 -0.34762457 1.0705013 0.115572676 1.2657148 -0.43645382 -0.32894668 0.3333617 -1.1765655 0.43220493 -0.79405767 -0.45104992 -0.12780626 -0.44779915 0.016913025 0.18080246 0.68836707 0.12547772 -0.2885285 -0.39105675 0.39330533 0.2375036 -0.19667605 -0.022880381 -0.49417555 0.18984376 -0.13559842 -0.056815527 0.57785976 0.09504576 0.22008738 -0.83702743 0.47306207 -0.4302774 -0.15771487 0.50534916 0.4044979 -0.18234585 0.047886476 -0.59447193 -0.60491264 0.336975 -0.26945716 -0.63574284 0.48603374 -0.05384505
348 0.48797813 -0.5633826 0.71244484 -0.28475556 0.58258444 -0.22460814 0.20296998 -0.41679463 -0.09761558 0.07926583 -0.085790016 -0.33399338 0.003685752 -0.36111945 1.0433409 0.19565147 -0.82938707 0.21737291 0.34986782 -0.37245584 0.27782956 0.094746135 -0.2044667 -0.7285112 -0.025869649 0.3133538 -0.41857395 0.73803955 -0.29666626 -0.1926299 -0.41205087 -0.17123157 -0.37556025 -0.03455192 -0.052130107 0.27110374 -0.17442614 -0.6781379 -0.06488712 -0.2886474 -0.1697885 -0.2646431 -0.5127938 -0.28802046 0.7320847 -0.5561237 0.1491862 -0.49997628 -0.049240347 -0.29565838 0.25379252 -0.08708872 -0.13371369 0.22211501 0.53387374 -0.32125616 -0.34636337 -0.45793724 -0.75377023 0.19845672 -0.83841896 -0.17986529 0.48822114 -0.4538327
414 0.17093128 -0.8785755 0.5615202 -0.3922024 0.0020084626 -0.8532223 -0.12297026 -0.23759462 -0.30575776 0.2363026 0.3766689 -0.41659737 -0.07156105 -0.4106314 0.47263005 0.10045694 -0.83250666 0.420349 0.17209834 -0.8889114 0.31202647 -0.10317625 0.18066415 -0.4676032 -0.4031419 0.50762933 -0.50560063 0.5413337 0.08022176 -0.76298726 -0.53886783 -0.29913586 0.17712173 -0.37752122 0.23826797 0.10100634 -0.17888772 -0.09165441 -0.14468545 -0.40256453 0.11541954 0.123662405 -0.5715633 0.38783753 0.81389034 -0.20706463 0.28069046 -0.28665996 0.09814694 -0.0010815646 0.27602842 -0.1000571 -0.2761106 0.18690877 -0.03180212 -0.3909148 -0.19013473 -0.5035199 -0.61107606 0.79939723 -0.11486715 -0.2788561 0.6581963 0.064659484
483 -0.42113876 -0.31002802 0.31036067 -0.47980127 0.022112962 -0.29138333 0.32275724 -0.29765505 -0.11212698 -0.08121351 0.15220821 -0.25563836 -0.10959307 -0.62959516 0.802493 -0.06532645 -0.87993824 0.2237992 0.77597463 -0.293352 0.06712449 0.036402624 0.08267028 -0.8204795 0.38841468 0.28534406 -0.38288134 0.69717354 -0.4860111 -0.31640786 -0.1789627 0.078011066 -0.18701893 -0.1980243 -0.20591988 0.6721905 -0.4546492 0.35074756 -0.026049135 0.05228018 0.38275057 0.12867208 -0.48395038 0.24907255 0.48066851 -0.30155265 -0.11826949 -0.37598142 0.3216787 -0.1401793 0.41309345 -0.44499344 -0.3741453 -0.24097912 0.31540674 -0.3098833 -0.22627878 -0.6199995 -1.0272791 0.12573169 -0.31819138 0.0064749657 0.14859682 -0.04592108
3830 0.6347741 -0.58303195 0.6999368 -0.62754524 -0.030523144 -0.12564357 -0.348448 0.6045222 -0.38697368 0.42239332 0.65582484 0.022171937 -0.2114191 -0.39335474 -0.8719343 -0.11994132 -0.72661585 -0.9809283 -0.019432915 0.04744866 0.41500536 -0.1582561 0.6019305 -0.15350567 0.55642223 0.5111743 -0.46619663 0.3474141 -0.42872447 0.3417936 0.39276266 0.84710485 0.66147166 0.28276587 -0.7016238 -0.31254753 0.30713916 0.3077806 0.6231011 -0.06789146 0.18822291 -0.424992 -0.39622825 0.060514193 0.16015932 -0.38200453 0.06368658 -0.2253407 0.36424968 0.1604828 -0.17409906 0.29970738 0.115781315 0.042369723 0.118090965 -0.12220704 0.3553677 -1.348643 -0.5346309 0.5696956 -0.6810869 -0.2658799 -0.24659161 -0.08261532
698 -0.07145443 0.28325415 0.5303626 -0.11292569 -0.63779426 -0.5105775 -0.848777 0.24006741 0.1940904 0.8954035 0.67140377 -0.616182 -0.44906843 0.044126093 -0.6234352 0.148088 0.1207682 -0.3740457 0.070800856 0.5078615 0.2095053 0.26920766 0.3369827 -0.2644172 0.111508615 0.11356082 -0.59590304 0.59781057 0.049341742 0.23891468 0.17003024 -0.007347936 0.32722327 -0.19472481 -1.0113584 -0.06206339 0.066017896 -0.5940561 0.21652949 -0.3219347 0.0513326 0.0752138 -0.79135823 0.3955909 -0.06868088 -0.39145944 -0.07813639 -0.13650012 0.4840082 -0.32704315 0.18167084 -0.49471757 -0.5072579 0.41798633 0.23473683 0.16118155 0.013160746 -0.7852043 -0.97081584 0.752978 -1.4176464 0.41887146 -0.26393446 -0.07601525
56 0.43011993 -0.75507736 0.012406397 -0.18693179 0.25290856 -0.5059561 -0.74738574 0.2590066 0.112334765 0.36890933 0.26260868 -0.18394595 -0.39397886 -0.6473583 -0.1983387 0.8621882 -0.09486207 0.33579466 0.42296267 0.38262296 1.0810016 0.19028977 0.40449592 -0.99224794 0.07868033 0.51463336 -0.42294168 -0.12218443 -0.029440016 -0.76760757 0.07060892 0.27287394 0.095260814 -0.51656586 0.0016499797 -0.29628137 0.3362051 -0.007432403 -0.25941205 -0.43493652 -0.08324496 0.09643977 -0.24365039 -0.11026044 0.72293043 0.08182958 -0.19892605 -0.4285034 -0.5173424 -0.25491154 -0.24811046 -0.08548215 0.3668171 0.9709405 0.8422783 0.48223874 0.3051065 -0.21779607 -0.49881524 -0.36742783 -0.8132603 -0.38483557 0.07635051 -0.55066067
376 0.108175665 -0.44170755 0.717107 -0.30950943 -0.0524777 -0.41263098 -0.15210982 -0.4592292 -0.3450923 0.0038880263 0.086962156 -0.37351033 0.4268133 -0.5467074 0.8825111 -0.026324717 -0.9404999 0.31407812 -0.09284161 -0.31322354 0.110408105 0.13644253 -0.15678878 -0.43647277 -0.13088039 0.33476475 0.0042344993 0.5744411 -0.3328874 -0.2352125 -0.42193517 -0.058409322 -0.09033209 -0.33089852 -0.19869626 0.27720058 -0.25614387 0.039768796 0.06535327 -0.038220182 0.19554012 -0.10419433 -0.8110218 0.007953576 0.74840146 -0.532768 -0.08711118 -0.43788022 0.21581742 -0.23003663 0.40681252 0.064556 -0.18150717 -0.2101271 0.36646682 -0.25278744 -0.24433771 -0.5664057 -0.8697845 0.37534148 -0.48096424 0.16214177 0.8719374 -0.15836585
67 0.62814844 -0.61178017 -0.05203905 -0.2938151 0.43168455 -0.4418702 -0.57473314 0.45416832 0.16507094 0.49249166 0.29138428 -0.28000098 -0.14059508 -0.56921864 0.052871943 0.77346987 -0.13559142 0.18812518 0.26745296 0.53798246 1.0533209 0.074688196 0.6601188 -1.035289 0.07836004 0.24762124 -0.41068274 -0.38536784 -0.16629438 -0.7972625 0.002442259 0.0600816 0.15434162 -0.456803 0.04487887 -0.44793543 0.3020106 -0.34726244 -0.19535433 0.10799747 -0.17679769 -0.26567078 -0.35839885 0.05805496 0.814497 -0.10649573 -0.20392829 -0.30334535 -0.4262878 -0.12242177 -0.44181344 0.11771121 0.029352918 0.8955364 0.9431427 0.33036557 0.31259513 -0.29577786 -0.324258 -0.32051104 -0.8062095 -0.20001036 -0.25277546 -0.38785
3596 0.5107985 -0.63388705 0.5236569 -0.5094832 -0.0710035 -0.13621522 -0.20598225 0.53565186 -0.56311846 0.6814252 0.55771095 -0.31086907 -0.029391067 -0.50034 -0.5038385 0.26956266 -0.61978686 -0.83290917 -0.11211803 -0.15275472 0.3594171 0.047269873 0.119442016 0.15497944 0.1936341 0.34818542 -0.44275197 0.167238 -0.14041662 0.27651983 0.28521 0.8146844 0.07258091 0.17832217 -0.51459485 -0.53882456 0.12599936 0.2095264 0.38483363 -0.5424801 -0.031972535 -0.075311676 -0.38865456 0.20718145 0.58595765 -0.1700061 0.46167055 -0.12264436 0.21036847 0.1657936 -0.11426249 -0.14733888 0.20864318 -0.23387308 0.08052812 0.24266717 0.30041108 -1.1582028 -0.49434686 0.47280735 -1.3027111 0.3290121 -0.8012394 -0.2407835
828 -0.29028583 0.12376693 0.43363255 0.18185589 -0.0030202593 -0.55412275 -0.6433028 0.05758607 -0.49177125 1.1268175 0.64993846 -0.77218604 -0.6255887 0.14762412 -0.46040487 0.2934662 0.22906527 -0.064871885 0.26940137 1.1588535 0.7645861 0.4962478 0.24569382 -0.98299116 -0.016823817 0.56172806 -0.61441857 0.70132416 -0.1609823 0.043857533 -0.12603566 -0.30845088 -0.033856135 -0.3916518 -0.4041096 0.1097775 -0.006529554 -0.380056 0.6046721 -0.34612507 -0.39499983 0.18698232 -0.7821074 0.30842176 0.07773374 -0.39278978 0.09176045 -0.12964003 0.41066423 -0.24455197 0.46265036 -0.33312988 -0.76557624 0.40822256 0.16839819 -0.0037826917 -0.54886395 -0.50797606 -0.6909266 0.80283433 -1.0073128 0.2263109 -0.39903995 0.030685423
1888 0.22117038 -0.13491273 0.48619172 0.4301142 -0.13816668 -0.30054447 0.1819236 0.004965501 -0.37051025 -0.38348293 0.40250537 0.26931563 0.064252116 -0.6578828 0.5000239 0.22266625 -0.503586 0.20968184 0.3333562 0.47353137 0.7018795 0.71343845 -0.09688414 -0.50837535 -0.39043817 0.21731521 0.11617237 0.06785158 -0.09691591 -0.3797906 0.19542015 0.24832965 0.010617415 0.1964268 0.17461789 -0.27756977 -0.26923457 0.35639387 -0.022071218 0.56121135 0.46037832 -0.18018866 -0.18405421 -0.2548212 0.45231918 0.15616307 -0.20804335 -0.17904347 -0.0070070545 0.37350756 0.26318726 -0.023523426 -0.30438894 0.19317192 0.16876468 -0.21730791 -0.43390065 -0.78398746 -0.6509734 0.4426146 -0.4796582 0.04126539 -0.27782178 0.4129776
271 0.44314077 -0.8571452 -0.029826235 -0.5050393 0.41841683 -0.43449357 -0.49141413 0.2765102 0.19973552 0.48143592 0.34470272 -0.4076499 -0.298348 -0.5012177 0.11830891 0.64990175 -0.13454609 -0.073037736 0.37348852 0.45297244 1.1920301 0.2802742 0.48098654 -1.1584706 0.021396887 0.3763979 -0.35158792 0.0376774 -0.09718866 -0.4390287 0.12430345 0.09212479 0.39529073 -0.56322956 0.08573521 -0.45949948 0.34190348 0.21462838 -0.20600812 -0.16992338 -0.021420473 0.14870772 -0.2774541 -0.11308983 0.73051894 -0.17037858 -0.19614117 -0.49869105 -0.56929994 -0.03181424 -0.3447075 0.19045538 0.16021988 0.9517582 0.76601636 0.5738159 0.32635322 -0.18841526 -0.6001389 -0.34617978 -0.8716711 -0.4843979 0.07607708 -0.6629144
3938 0.51454514 -0.5387797 0.6393616 -0.3737501 0.050215084 -0.0057732845 -0.15194596 0.64174986 -0.233008 0.6606282 0.45175305 -0.36045194 0.009852595 -0.42905143 -0.49804148 0.4852957 -0.84676135 -0.7647881 -0.34747058 0.05235071 0.24549969 -0.09482554 0.49196145 0.17445745 0.25061682 0.5296978 -0.6302454 0.34217253 -0.18166883 0.33788857 0.58387387 0.8372273 0.14743105 0.25167495 -0.41842088 -0.34174395 0.024739577 0.09519084 0.54327613 -0.45265427 0.073015906 -0.17351489 -0.49512997 0.25248104 0.4457111 0.00414223 0.40466803 -0.20735107 0.2888954 0.15945497 -0.014284639 0.13423751 -0.0020489597 -0.12662767 0.2203115 0.17291057 0.25678486 -1.0707629 -0.29561302 0.23392737 -1.2992666 -0.06916162 -0.6591874 -0.09759931
1800 0.37554318 -0.3086495 0.37978134 0.34798753 -0.15652639 -0.12123891 0.19417973 -0.088022895 -0.34185374 -0.43843773 0.5348992 -0.03674739 0.2439126 -0.7080858 0.3736137 0.19182098 -0.5132106 0.2624154 0.4543834 0.3290828 0.62437534 0.57410884 -0.21791312 -0.4903595 -0.48257947 0.18939146 -0.0025607867 0.25094745 -0.13384046 -0.4018336 0.4350828 0.16840276 -0.1145544 0.03886719 0.005259112 -0.0020315363 -0.3173889 0.38178587 0.029079575 0.69093615 0.545241 0.021473344 -0.13860197 -0.36930332 0.5395187 0.16369364 -0.30781597 -0.19702576 0.050061077 0.13919955 0.24476525 0.01980785 -0.24711758 0.17528684 0.13993557 -0.25172424 -0.27262747 -0.71960354 -0.6357385 0.4498346 -0.4914682 0.038890507 -0.26649967 0.35631904
322 0.56852794 -0.9617262 -0.2522566 -0.4634026 0.29163677 -0.67023116 -0.7955269 0.12699907 0.06339754 0.33921334 -0.0047074156 -0.2908187 -0.29862905 -0.55971557 -0.005388261 0.6231497 -0.3617724 0.030106964 0.375966 0.65678674 1.177313 0.3271554 0.56464 -1.1096973 0.18397886 0.6340521 -0.17810903 -0.33706006 0.22963256 -0.61079544 0.17930447 0.46774969 0.07810362 -0.29739305 0.32604605 -0.57848084 -0.15652198 -0.20748948 -0.2273183 -0.15094976 -0.2942461 0.009706883 -0.14144538 -0.0898576 0.903103 -0.115257755 -0.19692375 -0.3275906 -0.3651662 -0.32479876 -0.29736412 -0.08380931 0.35054958 0.48481074 0.7172068 0.41759843 0.3484435 -0.14908907 -0.29958013 -0.3259317 -0.90465033 -0.45220786 0.046005297 -0.50038075
3545 0.49478734 -0.67731255 0.6534267 -0.34182948 0.08431117 -0.06375447 -0.263036 0.52385354 -0.23004487 0.6157262 0.6345984 -0.2390024 -0.12353029 -0.15448964 -0.5437431 0.35514674 -0.7919546 -0.7520249 -0.30770233 -0.06341708 0.42622632 0.028427664 0.360578 0.13447252 0.105146825 0.4938697 -0.6933709 0.25184214 0.06723268 0.41467515 0.51284003 0.7653846 -0.15682113 0.23435886 -0.2581728 -0.19235472 0.01892751 0.26135138 0.6008771 -0.47821704 0.03698631 -0.06691985 -0.3778222 -0.011545169 0.39955676 -0.30668122 0.6893538 -0.22168213 0.5058331 0.07146196 -0.052579235 0.11947051 0.20115855 -0.111765735 0.017188601 0.23984082 0.2720397 -1.1618626 -0.45832223 0.15215673 -1.3737683 -0.018450921 -0.65515083 -0.15486616
25 1.0230701 -0.792872 -0.0011740343 -0.4564279 0.42314032 -0.6002714 -0.68556565 -0.035815436 0.027466716 0.31095994 0.53985876 -0.32209638 -0.31589156 -0.41102415 0.021647248 0.24867775 0.012188946 0.1074207 0.292002 0.37174192 1.2609935 0.29221123 0.69991535 -1.2603695 0.5491761 0.6169421 -0.4225958 0.4041923 -0.09325934 -0.7285771 0.21391606 0.0037120502 0.28359014 -0.441012 0.019212158 -0.7044176 -0.14340755 -0.013857994 0.07130922 -0.08432822 0.06590024 -0.045425802 -0.29263064 0.08113664 0.58487487 0.27809063 0.1101947 -0.14752905 -0.50727516 0.09778199 -0.77715266 0.07021197 0.0539119 1.0546912 0.6232989 0.50419384 0.42410702 -0.10337318 -0.41623804 -0.25095418 -0.7501397 -0.030653775 0.06156574 -0.52395463
713 0.5240664 0.13649474 0.010394422 0.63311905 -0.19031224 -0.34932023 -0.4670775 0.10458538 -0.31850794 1.0494162 0.75951284 -1.1526684 -0.5861541 0.08865953 -0.35466602 0.24588454 0.14178626 -0.08324079 0.19281146 0.98347586 0.87903666 0.52650046 0.28823695 -0.7732337 -0.0024457925 0.41239277 -0.6740172 0.6034851 0.06775994 -0.16946205 -0.33539772 -0.2535596 0.40066424 -0.28131518 -0.7292507 0.15957952 0.019184634 -0.44843802 0.8413556 -0.04893664 -0.25535354 0.009289516 -0.6557529 0.19634137 -0.119090326 -0.5046594 0.1547684 -0.24977931 0.2857268 -0.04056607 0.16381417 -0.584496 -0.5031462 0.608806 0.18463513 0.037637476 -0.7457072 -0.75424284 -0.7003313 0.9405259 -1.0533193 0.1482802 0.05190433 0.053239413
475 -0.13662356 -0.3716377 0.5223163 -0.28703833 0.38425776 -0.22698538 -0.015768245 -0.35755906 -0.40106112 -0.07278833 0.13300727 -0.19439997 0.25756675 -0.45062116 0.9410784 0.037117112 -0.7783299 0.122316115 0.074883886 -0.5032136 0.23036198 0.011416431 -0.15323561 -0.26129758 -0.25033513 0.441848 -0.13999996 0.8617372 -0.5290807 -0.3885788 -0.29039034 -0.039137933 -0.24227531 -0.21795142 -0.2876772 0.54429764 -0.2516224 0.247366 0.09786594 0.051823784 0.108430564 -0.07167524 -0.6933075 -0.03136742 1.0135999 -0.35656363 -0.14098258 -0.50509846 0.19702901 -0.021913726 0.2683178 3.177586e-05 0.11307084 -0.1436759 0.4531575 -0.24609627 -0.26165637 -0.71528316 -0.7556051 0.2014772 -0.6913321 0.14746639 0.6516434 -0.10710111
3604 0.64674276 -0.41180125 0.5248983 -0.39648807 -0.011618901 -0.07292226 -0.24614541 0.8531742 -0.5223072 0.51984924 0.54314756 -0.5128129 0.37912118 -0.32256466 -0.7171817 0.40568632 -0.845974 -0.5035978 -0.0077985674 -0.3892077 0.73850954 -0.016705725 0.4108623 0.4724672 -0.3130003 0.60505366 -0.5170566 0.32315302 -0.1346595 0.15895848 0.19815373 0.4845897 0.085635565 -0.095147714 -0.23832192 -0.57421786 0.37748754 0.25868958 0.54212266 -0.5528304 0.24508977 -0.22924113 -0.15123902 -0.0640331 0.15798903 -0.5640611 0.5237273 -0.14883907 0.38437676 0.25109628 0.07209044 -0.31925556 0.17831284 -0.27811044 0.4522053 -0.18515742 0.22848457 -1.215414 -0.42607108 0.24720778 -1.182885 0.050405025 -0.8655582 -0.3511797
26 0.5456777 -0.77347404 -0.34466177 -0.53854334 0.34266037 -0.4646383 -0.51487374 0.15664499 0.14015052 0.39716354 0.42438242 -0.1788276 -0.22338846 -0.4351302 -0.026091881 0.6723753 -0.061673936 0.18867256 0.35079148 0.524298 1.2353854 0.14496742 0.6162778 -1.2115798 0.24914293 0.17486057 -0.3208057 -0.13920234 -0.11163623 -0.5426201 0.20071918 0.20526288 0.14520347 -0.59344804 0.006372291 -0.3698438 0.37613174 -0.07682708 -0.05528883 0.124025464 -0.16808043 -0.07868834 -0.5052334 0.19865863 0.94092536 -0.14013836 -0.06572502 -0.3431917 -0.410514 0.033746593 -0.34392408 0.12743706 -0.0030187313 0.86252695 0.81340295 0.40666187 0.4690472 -0.2305959 -0.6574846 -0.33193463 -0.6384399 -0.3647825 0.019947873 -0.62570506
1352 0.32911572 -0.14714944 0.37181342 0.37293887 -0.32073265 -0.2950894 0.34546927 -0.00089692645 -0.29180247 -0.23161678 0.45156196 0.10870555 0.064380616 -0.71324545 0.48887336 0.22534816 -0.5623938 0.26242393 0.2774135 0.3910473 0.65786463 0.6640157 -0.17800538 -0.34958744 -0.53272367 0.27559933 0.28545177 0.06268237 -0.1824833 -0.42197222 0.51157385 0.24713367 0.09535846 0.011498326 -0.009120316 -0.078881264 -0.23314327 0.07234537 -0.09218463 0.48909274 0.378289 0.007903071 -0.062106233 -0.18049067 0.60227877 0.12898602 -0.093820296 -0.13847807 0.06485674 0.28867537 0.36213502 0.13086271 -0.32022032 0.13675655 0.17009076 -0.2573089 -0.29887363 -0.63839495 -0.63446647 0.45153135 -0.3294435 0.4768203 -0.41754448 0.32599932
1663 0.12844004 -0.13313071 0.33923584 0.38647357 -0.22972068 -0.31374168 0.14487916 0.073100224 -0.33045095 -0.26774305 0.5652805 0.12602729 -0.025697246 -0.6935351 0.43514708 0.18713097 -0.6238032 0.1778643 0.19697762 0.54036975 0.5596504 0.586982 -0.20098138 -0.4751055 -0.3291774 0.3761864 0.20652908 0.05649895 -0.07735963 -0.32906416 0.3313601 0.15912068 -0.016701926 0.05108273 0.052947376 -0.07041392 -0.2633157 0.09410347 0.025318973 0.5052508 0.40021923 0.1037574 -0.075247005 -0.22976677 0.7097511 -0.029970264 -0.09343139 -0.2771794 0.06852856 0.29476893 0.32224074 0.2455952 -0.3436877 0.31539604 0.10438718 -0.30438292 -0.31024286 -0.6498934 -0.41272214 0.4259231 -0.39911065 0.34201986 -0.44253898 0.60077506
277 0.46918523 -0.8310844 -0.32298955 -0.71005005 0.4126978 -0.7820621 -0.69987166 0.58481735 -0.09314856 0.17114857 0.122479364 -0.20668858 -0.3629601 -0.3326891 -0.21500844 0.6678892 -0.08276893 0.036255363 0.33665326 0.2679857 1.243624 0.4397168 0.80179673 -0.92238766 0.008044332 0.42075267 -0.64828044 0.058426484 0.05213464 -1.4163119 -0.056480978 0.115654446 0.328479 -0.27146873 0.059630252 -0.28999162 0.24360126 -0.13776717 -0.13565776 0.008763184 0.025980027 -0.016387682 -0.6033543 -0.05763606 0.66299623 -0.06473624 -0.40157285 -0.47983098 -0.72417766 0.0065628183 -0.46743986 0.36499277 -0.21556506 0.51532793 0.401804 0.2817105 0.4045067 -0.29461104 -0.37843683 -0.21101956 -0.6894978 -0.31422588 -0.17450781 -0.53348726
1730 0.22199337 0.07457608 0.3775895 0.43833414 -0.12911716 -0.18340456 0.14303677 0.024550084 -0.23755178 -0.25986135 0.48940217 0.034137916 0.13218997 -0.60080504 0.75887233 0.12937824 -0.74466306 0.29830322 0.06562545 0.4340143 0.6550501 0.6844807 -0.15627095 -0.5060475 -0.4515819 0.36037037 -0.1529768 0.065259926 0.072601385 -0.20589401 0.498264 0.2762429 -0.14450167 0.3206697 0.103854276 -0.019712968 -0.25128052 0.30319208 0.036147702 0.46237528 0.4286747 0.021482477 -0.089957066 -0.060793716 0.54072976 -0.1350768 0.07813974 -0.19220191 0.00962272 0.27154055 0.20492736 0.08527716 -0.3591094 0.40331873 -0.044683494 -0.22137992 -0.52491844 -0.647558 -0.6012103 0.28416273 -0.47427294 0.36842602 -0.33706906 0.37274566
428 0.2411535 -0.4434348 0.2455907 -0.33100095 0.20606601 -0.6552438 -0.24680302 -0.50134325 -0.23610565 -0.22342454 0.52360505 -0.18277065 -0.099769674 -0.86943203 0.82405066 0.14249806 -0.93461895 0.09537228 -0.4219131 -0.47536123 0.121908635 -0.07343801 0.030626396 -0.23623928 -0.25228795 0.5000101 -0.29016873 0.7200721 -0.43580797 -0.6968206 -0.31996873 -0.25728807 -0.51592666 -0.11681128 0.21266139 0.2669359 -0.5106715 0.36451554 -0.1801257 -0.0792147 -0.24413763 -0.230951 -0.66185445 -0.009534663 0.51819974 -0.2764731 0.14127691 -0.13314767 0.19646722 -0.30902553 0.03322989 -0.2868697 0.028483182 0.064152755 0.42167094 -0.09387738 -0.29059705 -0.46473253 -0.63621193 0.26626343 -0.36713842 -0.15413849 0.46195024 -0.102438994
21 0.5891306 -1.0378203 -0.27697986 -0.2351749 0.37996626 -1.0338821 -0.5377789 0.33825272 0.008284089 0.42220005 0.35950318 -0.074233234 -0.3661587 -0.31128243 0.079387836 0.8582061 -0.29712817 0.27443966 0.1135952 0.264355 0.923668 -0.0011908852 0.73311126 -0.9497636 0.1937212 0.1990991 -0.5031233 -0.45634544 0.19860622 -0.63891256 0.28793043 0.25340995 0.15857978 -0.7468668 -0.28098103 -0.30648726 0.10772094 -0.23350999 -0.269418 0.09412887 -0.37348917 -0.077570304 -0.5723637 -0.35872665 0.57985544 0.02304891 -0.28989103 -0.34483913 -0.36740056 -0.03160274 -0.5325836 0.43362692 0.13947728 0.9780346 0.53285193 0.5396886 0.08026706 -0.4404046 -0.4254168 0.04440289 -0.61965513 -0.112986915 0.14201967 -0.58015716
252 0.49788907 -0.945618 -0.1911455 -0.26164123 0.321155 -0.45057273 -0.50836295 0.27321583 0.4362936 0.4427407 0.42289782 -0.46387818 -0.18628311 -0.5452948 0.04630473 0.7760079 -0.15064238 0.26874056 0.24185893 0.29511282 1.103474 0.31959578 0.61409104 -1.1214782 -0.06527697 0.27971864 -0.52486944 -0.099246256 -0.1097244 -0.72476816 0.09300116 0.29189748 0.3415306 -0.50560945 0.081676245 -0.5124507 0.3531363 -0.30465508 -0.26877296 0.11083257 -0.03645845 -0.0033556663 -0.62010735 -0.13405445 0.6586474 -0.15544173 0.010798744 -0.36930954 -0.28893575 0.22743091 -0.36016214 0.2062675 0.06822611 0.86169523 0.9531653 0.4456516 0.43646675 -0.14045464 -0.41167107 -0.17604086 -0.62109816 -0.43729833 -0.11072195 -0.5189384
2047 1.037131 -0.25428814 -0.07102954 0.014480469 -0.38494793 -0.60681355 0.08631327 0.59303397 -0.5381298 0.339737 0.4134817 0.2928693 -0.007008586 -0.9090098 -0.25084725 0.35385 -0.27078646 -0.17584139 -0.34736803 0.61096394 0.71821773 0.20307702 0.12882975 -0.36799374 -0.035726424 0.41929674 -0.5713905 -0.039379757 0.18420146 -0.35180447 -0.37271377 0.06612502 0.3756885 -0.6637703 0.050722834 0.98580295 -0.32991442 -0.31438968 -0.23223378 -0.08286094 0.12575795 -0.24198851 -0.058876976 -0.295015 -0.089093395 0.26754728 -0.5851625 -0.37151238 0.57386714 -0.69855165 -0.47141346 0.32901987 0.5321062 -0.18459941 0.5204703 0.42203045 -0.2936685 -0.36849663 -0.60902166 0.17257439 -0.13739067 0.123023674 -0.31996945 -0.15206155
2543 0.26288858 -0.060650475 -0.19349349 0.16579208 -0.27850437 -0.40728867 -0.071391456 -0.07327769 -0.5220808 0.19039539 0.54512686 0.09071324 0.020324638 -0.6358319 -0.36272323 0.33455002 -0.75509053 0.06744601 -0.4422717 0.642822 0.7627716 0.46792895 -0.13596706 -0.5719668 -0.18943152 0.48585802 -0.10784123 -0.09898051 -0.33490172 0.2293385 -0.4684549 0.40357965 0.8956293 -0.7386131 0.5815521 0.64179295 -0.067973584 -0.33911347 0.36582562 -0.43511224 0.22726248 0.16305566 -0.19780637 0.33200222 0.18730932 0.18958567 -0.17259558 -0.6018471 0.3881062 -0.1330966 -0.38227886 0.47429124 0.47800496 0.3746269 0.53716445 0.5302941 -0.38070673 -0.416863 -0.05976996 0.040563934 -0.10271052 -0.10683239 -0.7196143 -0.28753877
1431 0.20788454 -0.08319312 0.25438434 0.40663624 -0.23646432 -0.46843272 0.30971754 -0.14765038 -0.11572905 -0.36679143 0.5883064 0.19725876 0.1111102 -0.7613191 0.2696081 0.3173149 -0.5613093 -0.08885649 0.26284176 0.50647676 0.596435 0.6846675 0.19892941 -0.50617766 -0.37527218 0.27409804 0.091381304 0.26422575 -0.22357175 -0.30018902 0.8291032 -0.0030661651 -0.060535908 0.24539505 0.41819832 -0.11645414 -0.2986889 0.19122393 -0.2723453 0.5259938 0.47272444 -0.23189788 -0.44847435 0.0062915147 0.79444724 -0.010927174 -0.36039203 -0.25077268 0.1741206 0.25889906 0.486257 -0.12594423 -0.5185603 0.19560136 -0.012225491 -0.41696572 -0.20770657 -0.6916977 -0.15411189 0.3282445 -0.35426077 0.29201403 -0.21763717 0.28730386
119 0.15200417 -0.63713384 -0.3863072 -0.78396815 0.3580953 -0.5939556 -0.5691784 0.6358965 0.26565105 0.027803784 0.61634374 -0.2686994 0.07677453 -0.5318624 0.3387695 0.36913973 -0.5291011 0.09036135 0.52977216 0.38462254 1.1367966 -0.20382752 0.52734125 -1.0801345 -0.08515943 0.3711423 -0.37983018 0.18005356 0.24932799 -0.6436652 0.29775006 -0.080608375 0.28779978 -0.49435574 -0.05896834 -0.5392934 -0.055495143 -0.0056241537 -0.63688225 -0.27305776 -0.11170985 0.095079966 -0.49423903 0.08561183 0.8973635 0.31163156 -0.23397063 -0.41353968 -0.11346584 0.04264404 -0.7090214 0.3437193 0.30407014 0.7410351 0.81499076 0.41185632 0.4493964 -0.47166947 -0.059023056 -0.40413943 -0.65938336 -0.22504686 -0.02340659 -0.41870967
1584 0.31011134 -0.20129126 0.22917235 0.21701507 0.0011582521 -0.37794435 0.3774565 -0.049550433 -0.3651596 -0.056814034 0.5018449 0.07693847 0.13505104 -0.7106213 0.22983396 0.004160268 -0.29864228 0.31688198 0.34660313 0.36126742 0.366793 0.7000991 -0.20263126 -0.4781566 -0.21263734 -0.032436922 0.121207565 0.1407593 0.00824594 -0.32911107 0.14530595 0.37245348 -0.34338054 0.20458385 0.20644219 -0.13040696 -0.3352715 0.49070784 -0.019960545 0.76256025 0.17802185 -0.33771998 -0.3747063 -0.1207713 0.81995255 -0.3205432 -0.046662237 -0.37995026 0.22500205 0.1523298 0.53932977 0.38434723 -0.5851478 -0.05049776 0.3744933 -0.4247478 -0.5221438 -0.9578636 -0.44574556 0.25999084 -0.31350204 0.34405443 -0.2706169 0.39028442
1086 -0.08179625 -0.20089266 0.46009308 0.35051808 0.15522273 -0.41572553 0.43761352 -0.6779094 -0.0896455 -0.25702578 0.36415106 0.13597478 -0.2642858 -0.6068415 0.41053653 0.08731976 -0.6497361 -0.080101445 0.5355212 0.16461958 0.60313064 0.71908194 -0.19206977 -0.38096407 -0.4911322 0.1048539 -0.172749 -0.14732832 -0.0783769 -0.6318505 0.027033467 0.17603941 0.24845818 0.23479128 0.3151468 0.06164065 -0.37017375 0.37640408 0.087015755 0.36579463 0.32888886 -0.09316535 0.0429056 -0.123594485 0.6365615 -0.057285257 -0.33736274 -0.5630729 0.2090683 0.50436944 0.48192075 0.23011087 -0.5420967 0.020795668 -0.06456097 -0.21622635 0.06876787 -1.0139911 -1.0208642 0.00049562886 -0.16444103 -0.1619939 -0.014707667 0.413122
3101 0.19128479 -0.30666712 0.38637125 -0.27435187 0.06580576 0.24588437 0.36189812 0.092578374 -0.6952107 0.1411049 0.70057255 0.54311126 -0.19029082 0.01146709 -0.27753323 0.32141435 -0.37344143 0.24491435 0.06681247 0.49209517 0.5994305 0.032520637 0.32593036 -0.81478614 0.0039902064 -0.27485377 -0.5803136 0.23893812 0.49359554 -0.102671005 -0.012351034 -0.31318566 0.4840808 0.35052896 -0.37537467 -0.0770655 -0.91847444 -0.2734458 0.04747478 0.024730299 -0.28398654 0.7403741 -0.5044394 0.29172304 0.22433434 -0.3335893 -0.41754058 -0.20189922 0.07538514 0.18596318 0.78953564 -0.5417222 0.5770754 0.06384118 0.218976 0.3446175 0.38833648 -0.6600669 0.0040035136 0.3224274 -0.46772656 0.41257638 0.2599581 -0.09071114
705 0.16090968 0.08534996 0.19110161 0.3236732 -0.061785247 -0.46132734 -0.6649353 -0.058099076 -0.3843322 0.680317 0.538099 -0.79869914 -0.6594241 0.21828613 -0.3227542 0.77396137 0.5098872 -0.56725746 0.21896498 0.97547966 1.0200864 0.65109366 0.23934804 -0.95075387 -0.022496918 0.4560196 -0.482052 0.75223786 -0.26194564 0.04439545 -0.2622009 -0.20795807 0.008135483 -0.48660406 -0.36810067 0.10171499 -0.10216235 -0.6147812 0.62759465 -0.2668294 -0.2189137 -0.0174928 -0.61956644 0.3257709 0.18802072 -0.5351117 -0.13627948 -0.51018393 0.6051955 -0.08773038 0.40284544 -0.679136 -0.56911963 0.24789931 -0.09714272 0.14982004 -0.5559618 -0.5860937 -0.68855464 0.92538035 -1.1144972 0.10920828 0.011718451 0.22539991
122 0.77332246 -1.0062226 -0.13242239 -0.10882722 0.5677502 -0.68399674 -0.5852919 0.21884985 0.39818725 0.29464093 0.3129617 -0.013079982 -0.2892616 -0.33035547 -0.18323873 0.67124945 -0.34997424 0.0603304 0.21308213 0.45448273 1.0203696 -0.021572135 0.7940675 -0.90962726 0.1999127 0.13835225 -0.4161464 -0.25396833 -0.029844398 -0.5665172 0.1801052 0.09214308 0.11967048 -0.6540731 -0.011370826 -0.3103102 0.1628962 -0.18182784 -0.25655565 0.03964782 -0.285939 -0.37964222 -0.63037115 -0.020942777 0.9532076 -0.212279 -0.42844373 -0.49017248 -0.19815528 -0.2828578 -0.45823509 0.24502687 0.026989346 0.94394714 0.58078074 0.6453905 0.070657305 -0.12451301 -0.47252977 -0.07150323 -0.7703598 0.027415153 0.24263793 -0.5481718
3291 0.21768479 -0.11586567 0.8798606 -0.32929763 0.40999553 0.035909772 0.16401923 0.024968155 -0.35498676 0.31227776 0.9414781 0.44616458 -0.20269786 0.0060375575 -0.18364593 0.49305713 -0.17317066 0.052907154 0.008005824 0.4310984 0.83655787 0.3477436 0.37936676 -0.6211632 -0.19504869 -0.373347 -0.5127953 0.28537998 0.3059615 -0.1388019 -0.030159753 -0.43920735 0.6640047 0.13789399 -0.2550193 -0.20010033 -0.7856518 -0.11418236 -0.40987548 0.37674662 -0.5138947 0.4974894 -0.4682692 0.32741693 0.17148949 -0.39240035 -0.13138379 -0.22531688 -0.021409119 0.019481707 0.627009 -0.6360073 0.4704707 -0.26281378 0.20867753 0.31220582 0.6327794 -0.48600298 -0.1759208 -0.06735851 -0.5849131 0.4437345 0.39206126 -0.112094715
1199 0.25057286 -0.27725172 0.40887374 0.51733243 -0.06194905 -0.24745885 0.11622179 0.10805464 -0.22426967 -0.42064172 0.5624641 0.12176238 0.15215072 -0.5761521 0.34500155 0.2524346 -0.5988243 0.12750925 0.27130687 0.63469386 0.33564582 0.6705359 -0.100612834 -0.6671421 -0.42556906 0.23717527 0.25133994 0.093516484 -0.1323286 -0.33857393 0.3629741 0.23280248 0.102709115 0.11696411 0.24737838 -0.22448784 -0.33765623 0.41581514 0.059730254 0.49501815 0.5047055 -0.01817036 -0.33552817 -0.12985131 0.3827971 0.0033924342 -0.23445731 -0.36280036 0.067405224 0.2827116 0.34910923 0.20744215 -0.36858216 0.15489852 0.17119543 -0.3163146 -0.43246895 -0.7445357 -0.55272746 0.52360773 -0.40869573 0.15565206 -0.26235402 0.35828757
805 0.11932716 -0.036977217 0.25262186 0.2251944 -0.35042143 -0.5214649 -0.72709817 0.07160987 -0.43215322 0.98321044 0.37359825 -0.82134825 -0.30137572 0.37285414 -0.32380685 0.28759682 0.2948092 -0.37448296 0.12072643 1.2992955 0.75417745 0.61173284 0.33522233 -0.80468893 -0.24464151 0.56760025 -0.6827333 0.9146693 -0.1021164 -0.24444257 -0.24774328 -0.2147397 0.2696819 -0.084326774 -0.27292484 -0.28787732 0.033947803 -0.56644976 0.6596584 -0.19167154 -0.27398714 0.03512679 -0.6121321 0.27559313 0.05416985 -0.47494635 -0.09686192 -0.24870011 0.45865008 -0.2218576 0.3086026 -0.45431417 -0.6482139 0.07417247 0.34294426 0.09385902 -0.5673716 -0.6877165 -0.93275946 0.96384066 -0.87869614 0.25376722 -0.10322201 0.012415813
2347 0.22271112 0.1507725 -0.19728507 0.025550598 -0.40367278 -0.46372157 0.102519445 0.0007968797 -0.67490786 0.5715973 0.56478727 0.04553582 0.059814177 -0.60356003 -0.19555192 0.42740914 -0.74551755 -0.0678979 -0.6669458 0.4365082 0.7922448 0.7221062 -0.039225504 -0.70011574 -0.07760967 0.36877394 -0.20163503 -0.35228565 -0.14880425 0.06973746 -0.48146638 0.20877987 0.6950902 -0.90198576 0.44588158 0.6361951 -0.25773725 -0.39263675 0.40257695 -0.3880263 0.13932797 0.083820865 -0.108836636 0.23139839 0.071571335 0.20692661 -0.3036322 -0.54836667 0.3506589 -0.13954902 -0.122063026 0.36472738 0.4124746 0.2657052 0.46886346 0.2468537 -0.27353886 -0.43012992 0.06623989 -0.003931314 -0.19405106 -0.03572162 -0.7780141 -0.6040799
1768 0.3954627 -0.12095489 0.43633354 0.36452508 -0.28254646 -0.18893062 0.3771164 -0.07387552 -0.31900573 -0.3187106 0.40578815 0.078817844 -0.04496669 -0.5805861 0.5362167 0.1690001 -0.7057559 0.0026793987 0.056500413 0.53070974 0.39724466 0.50715375 -0.021012707 -0.63883835 -0.3774164 0.10917926 0.05538176 0.28178492 -0.001312064 -0.46532062 0.393293 0.13886689 0.015170494 0.26760593 0.26868415 -0.22261305 -0.45003504 0.23595363 -0.041313082 0.5663461 0.2015897 0.10377573 -0.079709284 -0.096633464 0.7215302 -0.103934035 -0.03243229 -0.30670482 -0.05731921 0.47828838 0.108532034 0.05523657 -0.38750243 0.20193069 0.029257415 -0.26535386 -0.5059897 -0.66084313 -0.60695946 0.2943698 -0.5627027 0.3984105 -0.5007626 0.4405937
917 -0.22345833 -0.08857438 -0.16363674 -0.46120435 0.16990069 -0.8269245 0.73225266 0.22965041 -0.10039927 -0.11819052 0.39969417 -0.6040864 -0.27470478 -0.6499063 0.57874364 -0.37165198 -0.25162363 0.4501876 0.16764109 -0.012379773 0.43350935 0.12745926 -0.08758835 -0.6773892 0.47023514 -0.27219528 -0.37880522 0.5590099 -0.052830927 -0.22672214 0.2535136 0.16546097 -0.0949716 -0.20264612 0.4843766 0.31702393 -0.4545242 0.04121691 -0.017420113 -0.01117661 0.27620533 -0.61058927 0.0992156 0.31351086 0.44878042 -0.27399918 -0.065679416 -0.14628199 0.4020836 0.87333685 0.5044022 -0.28823626 -0.12123107 0.25485125 0.38771522 0.22658359 -0.13460317 -0.9672375 -1.3724011 0.3641301 -0.32844427 0.4232986 0.27996993 0.22279009
2742 0.12690957 -0.30098522 0.6189389 -0.28609225 0.36776173 0.21086057 0.040279415 0.32492325 -0.49435496 0.020318713 0.91078895 0.42080835 -0.26220307 -0.09142043 -0.24771546 0.63780004 -0.2183187 0.41287902 0.16461596 0.61928433 0.6266085 0.3606108 0.13704164 -0.6504975 -0.03722307 -0.10508342 -0.6952466 0.015756588 0.3752778 0.15505224 0.12376874 -0.21774948 0.6704092 0.3470556 -0.3549892 0.041384578 -0.69964385 -0.095528565 -0.021605521 0.23145765 -0.18754831 0.63768005 -0.6162312 0.24796651 0.12763327 -0.5207387 -0.2613781 0.0601363 0.15426318 0.06569116 0.5670293 -0.58708036 0.71691257 -0.090035066 0.43438008 0.32259706 0.4072711 -0.5424352 0.10275771 0.09431151 -0.5126181 0.5656274 0.29090717 -0.22256254
3397 0.2809746 -0.14681251 0.7991145 -0.43777156 0.21387786 -0.02694928 0.3502634 0.3326397 -0.3781198 0.2728749 0.8086679 0.38394576 -0.08707389 0.046800256 -0.25121987 0.6066616 -0.25773495 0.40728664 0.32451752 0.588479 0.62950325 -0.008316652 0.2709235 -0.76603544 0.03023728 -0.24294269 -0.6033873 0.12371933 0.31301585 0.020992449 -0.30942422 -0.4157579 0.72518516 0.27999905 -0.45690608 0.02366988 -0.7130759 -0.3352913 -0.014690904 0.26735732 -0.15980572 0.5372829 -0.6402192 0.05262845 0.23889539 -0.5265781 -0.06291168 -0.1676485 0.160808 0.40276685 0.62270796 -0.20179327 0.81995255 -0.1928104 0.2774509 0.09758912 0.51376796 -0.48670954 0.2102788 0.42973995 -0.5358525 0.49201524 0.22651194 -0.124753825
3082 0.3598668 -0.35891265 0.9352164 -0.26001948 0.18233255 0.06232686 0.21974018 0.09903574 -0.3724662 0.15348251 0.8927868 0.61316806 -0.15378512 -0.06674019 -0.21856508 0.62583804 -0.07753089 0.20432897 -0.06618356 0.60987335 0.82509995 0.116110325 0.23050404 -0.54589826 -0.1375291 -0.15818858 -0.6512168 -0.037968047 0.28908446 -0.006824043 0.06530118 -0.25033328 0.58702266 0.23792617 -0.33060232 -0.08247573 -0.8254054 -0.13535054 -0.2547001 0.11513738 -0.37579864 0.7982046 -0.47793952 0.17114507 -0.0765941 -0.44949788 -0.06555665 -0.2013224 0.09847744 0.08100477 0.5936774 -0.4234018 0.63617456 -0.19575296 0.07831196 0.36587778 0.46386695 -0.7945683 0.021054856 0.18457301 -0.59333736 0.38056865 0.25652453 -0.21050791
239 0.5497485 -0.8463238 -0.16943371 -0.52060586 0.23180805 -0.5307568 -0.23348516 0.112067394 0.28432834 0.21003188 0.31313437 -0.29625988 -0.4756763 -0.4847099 -0.18008947 1.0773722 -0.14818107 0.3810955 0.5563561 0.26955995 1.2639647 0.23439825 0.53887326 -1.1306902 0.21335314 0.49673852 -0.4897457 0.05184397 -0.0066654156 -0.37315825 0.15883806 0.1764436 0.24992162 -0.60986435 0.17474239 -0.20414242 0.58726335 0.021037934 -0.0674661 -0.056897797 -0.13477755 -0.20637982 -0.6604527 0.12671024 1.0084133 -0.17671734 0.03445209 -0.27664682 -0.45252037 -0.058970653 -0.15542051 0.20417157 0.070388384 0.83668697 0.70351374 0.52184004 0.53334683 -0.0069659953 -0.3248314 -0.34926337 -0.8764967 -0.21524341 0.1780305 -0.53705657
719 0.14500064 0.17430873 0.41859975 0.29547942 -0.21297191 -0.3159308 -0.80046004 0.051089335 -0.4843051 1.1019784 0.546044 -0.9493821 -0.55170786 0.1944891 -0.36309844 0.24714758 0.21179047 -0.23226239 0.38415787 1.1113762 0.6967142 0.4452402 0.20711386 -0.8581143 -0.0038743787 0.39141142 -0.8401128 0.40869367 -0.244079 -0.14541781 -0.17231593 -0.028435942 0.17805228 -0.2698263 -0.14599146 0.13307963 0.19718564 -0.7450719 0.5792556 0.027452469 -0.08058949 0.07251193 -0.7730713 0.14312044 0.22435045 -0.41344446 -0.24064176 -0.27373433 0.25974524 -0.16810957 0.49801043 -0.6424753 -0.43690243 0.30523998 0.23341136 0.10820238 -0.4626781 -0.46172926 -0.7367197 1.2279279 -1.1633744 -0.040588006 -0.039265983 0.26384273
3684 0.1826383 -0.30100015 0.59024185 -0.49479812 -0.04396643 0.023934178 -0.22005539 0.40484947 -0.5706576 0.25425145 0.50965303 -0.21414565 -0.113312945 -0.32540375 -0.7316497 0.10324657 -0.8102229 -0.76190686 -0.28021288 0.13086896 0.34392968 0.061329998 0.15335172 0.18091916 0.25358707 0.68127936 -0.64948946 0.38486874 -0.28874862 0.5508507 0.86264324 0.6309585 0.29658076 0.1218794 -0.52922976 -0.37290826 0.022917988 -0.047803823 0.159884 -0.3687362 -0.06365861 -0.31317243 -0.32930437 0.5982541 0.30993697 -0.059101623 0.45098704 -0.32091367 0.32606813 -0.079042174 0.10875548 -0.16374278 -0.013157861 -0.0077078342 0.1537684 0.10294831 0.10059635 -0.81801564 -0.686367 0.3635777 -1.2922188 -0.22448826 -0.70857286 -0.11474112
1827 0.47098488 -0.13653429 0.32838637 0.4217869 0.16516829 -0.26998797 0.1403442 -0.10393911 -0.13924323 -0.18204509 0.66352826 -0.008915666 0.16654159 -0.72974867 0.2879319 0.048196074 -0.7186638 0.27659476 0.22391379 0.42725986 0.7863994 0.55166864 -0.31334984 -0.380773 -0.36848566 0.33193076 -0.025662675 0.19867606 0.1759669 -0.49661922 0.4584829 0.11906284 -0.24394198 0.116855636 0.03636243 0.01146711 -0.32572296 0.4637244 0.12801658 0.67277604 0.48422828 -0.1757571 0.0017239935 -0.16091643 0.62831366 -0.07256748 -0.09393994 -0.01958438 0.03824354 0.2925756 0.30372125 0.034470208 -0.15937482 0.31403056 -0.14027597 -0.20522547 -0.27784228 -0.6275121 -0.5888799 0.36833656 -0.44695514 0.22015734 -0.39912218 0.42901093
1589 0.2472875 -0.11830904 0.27286062 0.5288416 -0.06315131 -0.34375614 0.2905899 0.029655786 -0.38350937 -0.20906688 0.505603 0.15830056 0.07130178 -0.58218473 0.40151256 0.3209511 -0.5504902 0.19331573 0.23330012 0.40527707 0.6281737 0.59590054 -0.16546951 -0.65630305 -0.30156368 0.2595694 0.22585076 0.0855869 -0.014715895 -0.38055104 0.54717356 0.25014055 -0.03627278 0.16209795 -0.05385444 -0.09292214 -0.3934041 0.43837997 -0.041920815 0.55383 0.3130129 0.08538448 -0.11657522 -0.24188663 0.52380985 0.0987485 -0.07494895 -0.25453407 0.21841905 0.31154686 0.45625973 0.11716802 -0.442835 0.21706642 0.05790318 -0.4164603 -0.27780616 -0.654402 -0.5303891 0.34238508 -0.45685595 0.22268948 -0.4042465 0.2719034
2839 -0.029821364 0.16638775 0.056088086 -0.28162444 0.67564046 -0.31746918 -0.12147856 -0.12261147 -0.16068634 0.42906356 0.5959002 0.2430565 0.27414644 -0.5759659 -0.5125399 0.35105944 -0.032254934 0.78327227 -0.08668488 0.43441924 1.1578367 0.059758753 0.2807809 -0.23942487 -0.18158558 -0.42085248 -0.794215 0.45654315 0.47618836 0.17086774 0.16019364 0.29735962 0.5417837 0.056286473 0.03931368 -0.43459964 -0.24587019 -0.33362883 0.7712106 -0.112832576 0.17443928 0.49962303 -0.56738985 -0.067427285 0.2805488 0.34403864 -0.13731232 -1.144072 0.14569488 -0.20594335 0.44453147 -0.5354884 0.18229362 -0.24594446 0.4384498 -0.1859683 0.5963781 -0.22811915 -0.3645794 0.34454244 -0.5347585 0.12405099 0.27160844 0.018359534
3320 0.29993564 0.06553076 0.7412353 -0.0025294127 0.52881145 0.18215203 0.3320606 0.22868276 -0.2588873 0.12386695 0.70942885 0.47288442 -0.21181086 0.046838127 -0.3172768 0.5666551 -0.2828437 0.39572558 0.3169974 0.3391914 0.7881346 0.058908377 0.12200471 -0.66129696 -0.16611286 -0.1643993 -0.7017749 0.11093574 0.148215 -0.078346014 0.26016864 -0.16668317 0.52851665 0.122067355 -0.1707177 -0.09257399 -0.72 -0.3021561 -0.11907507 0.21296826 -0.37314424 0.57082844 -0.8086455 0.4179327 0.35754466 -0.61569864 -0.08571544 -0.18697862 -0.041345302 -0.014433184 0.46139872 -0.62230057 0.455493 -0.1767783 0.32382664 0.4640758 0.3678471 -0.68379325 0.31184852 0.26948497 -0.50973344 0.5895731 0.39016628 -0.3095533
1746 0.09236112 -0.19070141 0.39654708 0.20055056 -0.18071792 -0.253067 0.3335044 -0.1437072 -0.40578967 -0.30010816 0.49846038 0.16611107 0.036945336 -0.661103 0.31751788 0.3100914 -0.7268562 0.27123466 0.45139194 0.36501068 0.75427204 0.6196101 -0.05860112 -0.5602251 -0.45101848 0.19544727 0.028604 0.16733293 -0.07201379 -0.52003145 0.43000898 0.4289448 -0.31953916 -0.05879218 0.07911405 -0.0075805797 -0.19122237 0.42001623 0.08773267 0.78778565 0.36290246 -0.15749754 -0.03291775 -0.24268751 0.55837053 0.29077244 -0.14500345 -0.22041537 -0.03583057 0.30408657 0.23260476 0.077086814 -0.324815 0.18712966 -0.055026185 -0.22408207 -0.21501125 -0.68722147 -0.46865672 0.41556218 -0.5421865 0.17373952 -0.18748233 0.35997197
637 -0.054161225 -0.6324923 0.21714626 -0.3866747 0.096394055 -0.51731086 0.10010776 -0.51125133 -0.3689337 -0.009353534 0.10401057 -0.14006707 -0.07752133 -1.0011516 0.96665347 0.011519056 -0.7462194 0.097638555 0.490735 -0.12666975 0.00017482619 -0.39691737 0.26875457 -0.6824225 -0.5369558 0.32168552 -0.2198553 0.31999516 -0.042230297 -0.19203068 -0.1551986 0.09670065 -0.11799516 0.050503712 0.09134985 0.6959663 -0.33383527 0.37590936 -0.07686089 0.15515292 0.2819192 0.08498306 0.029683907 0.53738576 0.66546375 -0.44740134 -0.023506772 -0.44390842 0.38345608 0.3809792 0.52653635 -0.2012292 -0.41440505 -0.27093676 0.19308238 -0.27650997 -0.13041742 -0.8617356 -0.73162144 0.53733265 -0.3012764 -0.016375307 0.30386904 0.032472517
200 0.64025795 -0.67340827 -0.10406849 -0.2336926 0.5063574 -0.51119494 -0.7413728 0.4533144 0.24254096 0.5981703 0.41091278 -0.30899134 -0.32657984 -0.5744678 0.15450685 0.65664893 -0.047445662 0.3665375 0.41781852 0.51793206 1.3575803 -0.07782274 0.32137123 -1.1163547 0.29106534 0.34378165 -0.53715104 -0.1028644 -0.17074898 -0.70840156 0.1772094 0.16909936 0.19813778 -0.43876782 -0.037282202 -0.5877828 0.19222325 -0.2247869 -0.08590515 0.24002346 -0.18512726 -0.29978696 -0.46703497 0.16057788 0.8500756 -0.10544723 -0.21740676 -0.32123697 -0.5797177 -0.18027169 -0.4758693 0.4640668 0.22640108 0.8209689 0.5831195 0.27435848 0.45630205 -0.3205333 -0.5191334 -0.22999318 -0.6070916 -0.2718673 0.12929562 -0.4957623
1126 0.32010496 -0.26620895 0.35731238 0.4828055 -0.23492073 -0.20915346 0.17830396 0.0498557 -0.16006969 -0.5346184 0.42381278 0.15564778 -0.075650245 -0.7435608 0.22680807 0.22071193 -0.37209454 0.20805597 0.34881428 0.5171594 0.5800243 0.70608884 -0.27902937 -0.6982009 -0.56166315 0.49088666 0.22147931 0.133273 -0.15925576 -0.33030382 0.52023953 0.10570846 0.0698448 0.17727216 0.13654545 0.07302713 -0.25640985 0.3641842 0.07087814 0.36733586 0.07301223 -0.14681879 -0.14905854 -0.1487864 0.5542071 -0.038847893 -0.18535697 -0.21366027 0.13605513 0.26092198 0.33425224 0.24964489 -0.3828329 0.18183449 0.2635515 -0.372555 -0.051816244 -0.46985734 -0.57471603 0.39165077 -0.5088816 0.27631828 -0.43188727 0.3656442
203 0.45694003 -0.8129023 -0.20563248 -0.31274548 -0.035023786 -0.5544981 -0.5351537 0.50872695 0.30078885 0.22690728 0.25418833 -0.3940142 -0.17002702 -0.4580889 -0.064065866 0.6967565 -0.24404286 0.32184672 0.2580614 0.19359186 1.1497673 0.1904465 0.5309086 -1.3799107 -0.06329086 0.48423967 -0.5220823 0.30899423 0.05409113 -0.6244337 0.2564362 0.17182322 0.4178178 -0.527728 0.048351802 -0.62608063 0.453183 -0.14443037 -0.27708167 0.08711023 -0.02069241 -0.022607686 -0.57265306 -0.023404289 0.4381917 -0.1341354 -0.18753617 -0.1661732 -0.2550411 -0.0012779868 -0.4246374 0.035815515 0.094109945 1.0139028 0.8216092 0.5725916 0.46855536 -0.298594 -0.41403446 -0.07508894 -0.6709306 -0.6071119 -0.12187374 -0.6923882
3633 0.4356628 -0.5498134 0.7387442 -0.19926915 0.10506144 0.042716026 0.0036953827 0.49355534 -0.29138455 0.60693985 0.44213355 -0.17726496 -0.06918451 -0.32283688 -0.62955904 0.15402363 -0.90407294 -0.5665904 -0.057620853 -0.15943998 0.18116653 0.16104543 0.45228153 0.2723675 0.19211125 0.76826316 -0.7541653 0.2026338 -0.23596394 0.22277902 0.7161819 0.65983695 0.28383136 0.0807678 -0.72601104 -0.2930615 -0.12687837 -0.037757274 0.36313385 -0.7882949 0.09223645 -0.21627596 -0.26078975 0.107141 0.40742573 -0.17881769 0.33801103 -0.15747415 0.33197212 0.08721511 -0.14156748 -0.23646465 0.08230823 0.20399196 0.08808344 0.31700212 0.25146243 -1.1084955 -0.6177062 0.51524156 -1.1510955 0.041877877 -0.562514 0.12719515
412 0.42809123 -0.45297852 0.66538495 -0.5511363 0.10548722 -0.34283096 -0.04287047 -0.52181816 -0.2585984 0.25300047 0.1877413 -0.3092002 0.078950115 -0.48774227 0.91793746 -0.07032134 -1.0432928 0.26553065 0.2590602 -0.60187006 0.19460939 0.14660208 -0.16518326 -0.5842289 -0.29526156 0.25383785 -0.40444896 1.005539 -0.18208466 -0.6047279 -0.18688786 -0.1627334 -0.23242539 -0.115634285 0.2426335 0.44944766 0.0647704 0.043604728 0.060435522 0.02968051 -0.24187863 -0.23812157 -0.5085826 0.5373961 0.6943452 -0.42565635 0.107058235 -0.28203723 0.0868549 -0.24564287 0.15920885 -0.08233402 -0.060423568 -0.06552057 0.19354029 -0.46441597 -0.22541232 -0.44759592 -0.7463251 0.20568384 -0.89109296 0.0638384 0.54384553 -0.16930565
3521 0.11145137 -0.015328278 0.5562847 -0.6000864 -0.031244548 0.30336237 0.0103333695 0.13316463 -0.50750566 0.32978892 0.119161 -0.15347958 -0.12250631 -0.6445938 -0.75382465 0.46115252 -0.7052137 -0.6476988 -0.12397968 -0.15262653 1.0202005 0.2374223 0.4978046 -0.04577356 0.01243658 0.1390669 -1.0848075 0.20393375 -0.17609826 0.23926385 0.90646327 0.47797304 0.021328839 -0.07028458 -0.37183207 -0.37455246 -0.17295769 0.0017130997 -0.13679658 -0.37465328 -0.3282517 -0.95646316 -0.110081114 0.4094708 0.21105988 -0.2433214 0.74044406 -0.46925062 0.48781228 -0.11834747 -0.49507248 0.37697262 -0.09227861 0.056519154 -0.119177245 -0.03490075 0.24879202 -0.5283482 -0.90484065 0.62614614 -1.6210806 0.15880115 -0.2396114 -0.1848542
1804 0.20243739 -0.10968613 0.53501606 0.44886917 -0.10005421 -0.44877258 0.09220608 -0.09359698 -0.46106407 -0.52179635 0.3950185 0.24644257 -0.030249095 -0.69980764 0.46025744 0.3753984 -0.5655251 0.20859772 0.36704743 0.454064 0.59633505 0.7695397 -0.23687804 -0.41105118 -0.2546332 0.27054423 0.09830703 0.08895541 -0.18351197 -0.34904382 0.25279778 0.108518936 0.045932822 0.15383779 0.12993252 -0.22133727 -0.35350817 0.3094407 0.0069197714 0.46613485 0.44289732 -0.057188082 -0.22728653 -0.0498625 0.5612094 0.16521265 -0.12941353 -0.22866285 -0.030500239 0.3486681 0.3913689 0.09926191 -0.36351296 0.25664526 0.09749439 -0.15655811 -0.28083938 -0.59765935 -0.6464733 0.47556245 -0.45654836 0.034657117 -0.39148477 0.48162797
9 0.685581 -0.6333451 0.08223386 -0.5305904 0.24717098 -0.4093665 -0.8343217 0.074305855 0.24436261 0.32969055 0.36642486 -0.24305594 -0.2435731 -0.13663612 0.06260576 0.67090875 -0.22196619 0.093737364 0.56523603 0.49363753 1.1154755 0.024203707 0.82072425 -1.2667503 0.15040408 0.25621668 -0.2776112 -0.18921286 0.07489422 -0.70697844 0.21325254 0.010773408 0.17991693 -0.671316 0.02671644 -0.4223159 0.22356604 -0.090656154 0.0403239 -0.028521508 -0.034946006 0.102344945 -0.41274625 0.09722295 1.058642 -0.049700536 -0.15041779 -0.43618345 -0.21649297 -0.08437586 -0.30611795 0.19711812 0.06269137 0.6643361 0.72979575 0.6782627 0.3482152 -0.21029097 -0.8083049 -0.37005234 -0.64289564 -0.3681223 -0.09236259 -0.8508011
3280 0.38777214 -0.05677138 0.59083873 -0.4606204 0.34835148 0.038650062 0.07711724 0.39594185 -0.30380115 0.38883874 0.83077663 0.18233457 -0.26023188 -0.04067933 -0.19798632 0.6127418 -0.17786612 0.14883335 -0.029609842 0.17668022 0.77311 0.061783515 0.2009105 -0.49800798 -0.17455892 0.010428964 -0.67912006 0.09761159 0.38268858 0.31403637 0.24243404 -0.4790982 0.55678374 0.3377176 0.027117318 -0.049666878 -0.9980425 0.046696637 0.02776654 0.09581745 -0.42837885 0.7288691 -0.61758053 0.12561183 0.20467833 -0.6023907 -0.39661953 -0.23893604 -0.053251926 -0.04731475 0.56914777 -0.6309506 0.65508646 -0.10963853 0.30149165 0.41877776 0.42729467 -0.71155304 -0.004334251 0.38075152 -0.4111159 0.57374614 0.5271223 -0.16537899
1390 0.23825294 -0.24503537 0.34270018 0.39021745 -0.0051695188 -0.14461313 0.22171244 -0.21726358 -0.19495924 -0.30360863 0.66952765 0.07627238 -0.07308096 -0.6617737 0.28866065 0.22198214 -0.61660916 0.22288498 0.27843153 0.4492688 0.74314994 0.5438926 -0.19421673 -0.3882057 -0.5233175 0.2791504 0.18231009 0.31167012 -0.037453666 -0.570439 0.31937906 0.16555698 -0.18350226 0.19411318 0.18403941 0.0025283676 -0.20302697 0.2917851 0.05971246 0.64510417 0.4160443 -0.27706194 -0.22036524 -0.32061437 0.5358746 0.123204865 -0.24551375 -0.1163219 0.15163927 0.28368524 0.36930853 0.13622496 -0.17385127 0.14584792 0.01133935 -0.20242088 -0.24587125 -0.6387034 -0.5374643 0.35843587 -0.54773104 0.25419408 -0.28667894 0.4680824
517 0.34547418 -0.3450309 0.28290337 -0.042448 0.23768666 -0.2720957 -0.13672943 -0.5579029 -0.536242 -0.094715305 0.39630762 -0.28232583 -0.09345137 -0.76521647 0.9244706 0.043638304 -1.0535487 0.37356746 0.11827038 -0.14869224 -0.09295302 0.01635984 0.13009939 -0.53166884 -0.18754424 0.4566208 -0.34442735 0.88404226 -0.11004034 -0.28295484 -0.16621572 -0.07422095 -0.44648972 -0.17314154 -0.2535165 0.38822666 -0.282927 0.116591305 -0.1503204 -0.018566675 0.19125801 -0.15959927 -0.70783824 0.09566631 0.43881336 -0.30158538 0.22900933 -0.37986946 0.043161985 0.15602647 0.4383883 -0.18971667 -0.022534851 -0.16435683 0.22607496 -0.20140886 -0.5303579 -0.57490396 -0.87205005 0.21038122 -0.52757037 -0.11304631 0.68202716 -0.24506287
315 0.69863546 -0.9871403 -0.3265979 -0.5638648 0.5523961 -0.8448298 -0.46283898 0.18288475 0.005471989 0.4818295 0.1321339 -0.49907312 -0.07606915 -0.5357924 -0.045239545 0.5294859 -0.41396877 0.27905393 0.04545164 0.57297385 0.96128464 0.24539605 0.4439801 -0.90106565 0.1647132 0.32248724 -0.05101094 -0.13470909 0.107323654 -0.6762884 0.011214351 -0.11391241 0.3050783 -0.75363266 0.17473668 -0.64819765 -0.058042806 -0.35721365 -0.44185627 -0.10417902 -0.27897212 0.09167308 -0.57727134 0.43940657 0.86464584 0.4183629 0.11875449 -0.28527224 -0.5672772 -0.30492815 -0.17979148 0.17572637 0.16716711 0.6680879 0.3857717 0.55795443 0.34709114 -0.35604852 -0.31407496 -0.50892514 -0.81897044 -0.14790161 -0.28709733 -0.4457544
3363 -0.07223467 0.096915126 -0.0021783924 -0.1194964 0.5770949 -0.20974791 0.052568868 -0.11088795 -0.38027498 0.48946854 0.5625636 0.29323342 0.32916346 -0.5829229 -0.45320264 0.36583847 0.008496794 0.8071167 -0.23931217 0.27351707 1.0005654 0.0020830152 0.32418028 -0.43864897 -0.14725299 -0.41586304 -0.9052966 0.5476623 0.65163857 0.14118852 0.22172168 0.1502876 0.5027678 0.10288348 0.04170739 -0.44471768 -0.33758092 -0.4313759 0.5056757 -0.048895255 0.17583506 0.42411008 -0.93212336 -0.06567831 0.24456893 0.4729236 -0.051959973 -1.1785318 0.084857754 -0.095530555 0.29301208 -0.58070385 0.045334008 -0.32143003 0.41562504 -0.098246984 0.5088516 -0.16911046 -0.27083 0.3902326 -0.6544094 0.066452 0.084672354 -0.158396
2951 0.39929146 0.16722949 0.8422617 -0.4551257 -0.17092809 0.4378875 0.27228907 0.37843388 -0.21234918 0.060638573 0.61998457 0.41765985 0.13114925 0.41322294 -0.21144587 0.30587783 -0.25843555 0.5024671 -0.19879748 0.42287943 1.134388 0.27714443 0.27220315 -0.78709865 -0.4107382 -0.008332683 -0.44205368 0.100514926 0.27378175 -0.17270327 0.05681881 -0.14701289 0.79973984 0.24957472 -0.32390398 0.12517948 -0.347256 -0.25546584 -0.028142935 0.1251908 0.13240354 0.8622712 -0.48456123 0.4469373 0.13824691 -0.13521153 -0.046003003 -0.28511882 -0.31565824 0.27809963 1.0148997 -0.53422374 0.29189464 -0.16383715 0.08346747 -0.18213479 0.5298256 -0.51070184 -0.17768459 0.08322139 -0.63625795 0.387031 -0.008018839 -0.38064224
136 0.66014636 -0.5932336 -0.059217364 -0.17467487 0.17922528 -0.5320013 -0.59335434 0.27191618 -0.14483845 0.6595651 -0.11298382 0.10158186 -0.11650235 -0.5369851 -0.12297867 0.27435163 -0.3560239 0.16668162 -0.15653938 0.4672326 0.9389723 0.4545169 0.4115415 -0.70850575 0.014231332 0.40216088 -0.03384562 -0.09737499 -0.021734381 -0.4679563 0.019574407 0.075660296 0.28342512 -0.6533539 0.2402474 0.3705268 -0.1438225 -0.3977095 -0.387256 0.058692668 0.08695229 -0.15709758 -0.2449598 0.05686735 0.71687067 -0.13867778 -0.32803723 -0.3389846 -0.31206635 -0.22317238 -0.49247757 0.32766628 0.3688455 0.3811971 0.77171373 0.70211697 -0.06300437 0.045653593 -0.02976166 -0.20527893 -0.19169697 0.021403804 -0.7744911 -0.3324598
2863 0.26768062 -0.09745982 0.45464176 -0.45979482 0.18618146 -0.07190225 0.18998128 -0.10569292 -0.47965342 0.17038393 0.95524764 0.5876428 -0.1949814 -0.4864554 -0.41999364 0.81776905 -0.27918464 0.6210955 0.022905642 0.62075084 0.47372788 -0.06189779 0.26292163 -0.3653315 -0.19018729 0.02545707 -0.6506694 0.08451188 0.10705709 -0.08529401 0.01721716 -0.258052 0.41786337 0.37765706 -0.43140286 -0.2527273 -0.7091199 -0.15819077 -0.0126767075 0.22023015 -0.26756084 0.91201216 -0.50061333 0.27259108 -0.05093786 -0.48059162 -0.33302814 -0.52416855 0.04139795 -0.018584691 0.9867589 -0.08276423 0.5937564 -0.2968158 0.023644654 0.32932425 0.7029829 -0.8356518 0.081509866 0.1612283 -0.30156007 0.18942319 0.22501272 -0.49927697
563 0.24393255 -0.44815215 1.0109679 -0.41421202 0.3244666 -0.6605027 -0.21307221 -0.0024537141 -0.5622844 -0.19224432 0.29554817 0.06882719 0.09561359 -0.5860786 0.8336124 -0.41410857 -1.1256319 0.10917212 -0.55964977 -0.8015154 0.27650112 0.15957235 -0.2755001 -0.4339341 -0.022239542 0.31805173 -0.27144155 0.37005836 -0.04391288 -0.49026528 -0.29414865 -0.19119649 -0.49887767 -0.018181719 0.042711228 0.16845796 -0.30916113 -0.68228847 0.24938467 0.089896165 -0.2255734 -0.81319463 -0.22613539 -0.0039685527 0.52614856 -0.12358644 0.11258441 -0.21278588 0.32002681 -0.43245396 0.22890536 -0.17184958 0.015656883 0.012972976 0.36497876 -0.15117298 -0.34268412 -0.45669737 -0.47125244 0.24374627 -0.31965673 0.05672909 0.36318052 0.14258665
1833 0.14421582 -0.10969528 0.41528103 0.33836198 0.10073024 -0.2482312 0.085760064 -0.106171615 -0.46584368 -0.452685 0.4673923 0.16846141 0.05852708 -0.6213092 0.34366465 0.31179553 -0.44866028 -0.04601598 0.19921127 0.5148435 0.6341387 0.6647753 -0.099887766 -0.5693544 -0.47010064 0.31876683 0.28883916 0.12146405 -0.10796999 -0.52932346 0.33832684 0.32090953 -0.15844001 0.18119557 0.08142817 -0.07395922 -0.14186937 0.49782023 0.064842395 0.60073 0.43438238 -0.1303493 -0.30054444 -0.21411866 0.41709703 0.12485089 -0.16463996 -0.22742268 -0.002515692 0.33990952 0.4377291 0.11600562 -0.344778 0.15339366 0.2011971 -0.23276837 -0.24590574 -0.77884007 -0.55447876 0.47066188 -0.5331343 0.0034434502 -0.30717868 0.3467242
1377 0.42326108 -0.10960042 0.30005106 0.20222816 -0.34415236 -0.31631315 0.33524412 -0.100228295 -0.40043 -0.33747786 0.62018734 0.11257943 -0.03192871 -0.80392796 0.45188886 0.19788718 -0.5073642 0.21202333 0.2455555 0.40014505 0.5200497 0.64950246 -0.102125496 -0.45975912 -0.25293785 0.33548617 0.07171769 0.1536182 0.02587727 -0.26844448 0.18428113 -0.050231215 -0.06151177 0.2699965 0.013410685 -0.11273867 -0.23560564 0.48291937 -0.091881104 0.4583135 0.35524267 -0.032414727 -0.10645659 -0.048255775 0.5409297 -0.07840306 -0.19363688 -0.18122247 -0.084872596 0.26404396 0.24473517 0.29162186 -0.47322688 0.558299 0.09472721 -0.3649382 -0.5625894 -0.66858166 -0.6459703 0.2515948 -0.59898096 0.3393045 -0.2479517 0.34227908
1621 0.15227558 -0.084382884 0.27438036 0.6060464 -0.261062 -0.3641552 0.26738995 0.1343287 -0.2879574 -0.17858738 0.36770207 0.26286757 -0.061503254 -0.7100738 0.39535785 0.25281754 -0.62459266 -0.009971488 0.34075817 0.25534564 0.67114276 0.5352691 -0.050046843 -0.6041608 -0.62212497 0.19723603 0.24507314 0.42098978 -0.05351001 -0.319553 0.436145 0.2839381 0.009034898 0.11322493 -0.028259916 -0.080036126 -0.12453481 0.5804135 -0.2216019 0.3975439 0.13632822 -0.12436772 0.03174945 -0.1329403 0.5259037 0.15909061 -0.16834271 -0.37821367 0.116001114 0.159411 0.29090714 0.037618786 -0.36422908 0.20947208 0.29012957 -0.21912873 -0.37334588 -0.39923704 -0.726164 0.3858524 -0.35092375 0.5188871 -0.3547169 0.36032662
304 0.5421727 -0.7429497 -0.051282182 -0.34580237 0.50718945 -0.82074034 -0.50134367 0.24164157 -0.07698711 0.34355506 0.13719755 -0.14347886 -0.22906889 -0.30655763 0.0061071054 0.92960995 -0.19360837 0.22844967 0.10417979 0.37440476 1.306267 0.25053975 0.55534804 -1.0592996 0.2733491 0.14992997 0.09357821 0.024149999 -0.016703313 -0.8320725 0.25522766 0.033675734 0.013990099 -0.42791575 0.06704172 -0.51293004 0.28554985 -0.5203347 -0.028927313 -0.13098 0.003274183 0.09559885 -0.5331973 0.23347975 0.8210112 -0.1060519 -0.38567767 0.007041683 -0.38682008 -0.07550886 -0.56373835 0.15362108 0.37529278 0.62996626 1.0173637 0.5911861 0.46291986 -0.32835355 -0.39347225 -0.23238628 -0.7110606 -0.55779535 -0.21173096 -0.3205327
3434 0.17357516 -0.09787207 0.7212058 -0.3253366 0.3425294 0.06915926 0.033687253 0.28919274 -0.39289007 0.14145605 0.6597734 0.40566123 -0.20130996 -0.091832675 -0.24876992 0.58436537 -0.16040249 0.3853743 -0.04354009 0.5376161 0.76278 0.2451302 0.31375048 -0.64203835 -0.103388354 -0.14517036 -0.6368891 0.0424283 0.22832601 -0.09873602 0.11505507 -0.16377674 0.6322691 0.38563403 -0.18998598 -0.076042436 -0.58564925 0.065109186 -0.12895261 0.21379067 -0.29258493 0.71854365 -0.53906924 0.442665 0.27979302 -0.48673022 -0.2704299 -0.012203183 0.053097952 0.0052969186 0.6734759 -0.71181643 0.775072 -0.12770644 0.21084617 0.49637482 0.44057792 -0.6586085 0.067752935 0.098018095 -0.58543086 0.5211106 0.42207226 -0.21223232
1612 0.38886455 0.00048287626 0.33129674 0.24301855 -0.0030598887 -0.19310041 0.1522945 0.11856831 -0.4588518 -0.20168844 0.33096594 0.19700949 -0.040113013 -0.52552044 0.25603768 0.17722395 -0.5156741 0.18920901 0.29059225 0.5656956 0.7668569 0.6994384 -0.19358708 -0.37546387 -0.46679977 0.13423914 0.1257483 -0.016817648 -0.047658756 -0.33656648 0.40577802 0.28004652 -0.12948379 0.12819147 0.19155817 -0.004358225 -0.23486236 0.51552725 -0.00034172836 0.5467759 0.34786472 0.09257044 -0.1937565 -0.08640789 0.620749 0.14035434 -0.057425275 -0.25615907 -0.0074897264 0.33204556 0.49698335 0.07026724 -0.2707119 0.30399045 0.11019226 -0.3601384 -0.3039738 -0.6823312 -0.454502 0.37065804 -0.46086377 0.19900873 -0.325047 0.5071409
1783 -0.18440984 -0.5114373 0.17658557 -0.62623364 0.17762157 -0.59007597 0.6296961 -0.062046736 0.1277725 -0.012442189 0.09030064 -0.44953987 -0.21183398 -0.68503934 0.2582438 -0.3863396 -0.5617996 0.8831586 -0.046060126 0.5214771 0.52604645 -0.045839764 -0.1367229 -0.51934344 0.6821528 -0.09318544 -0.09729789 0.4911327 -0.17627013 -0.20213114 0.17208871 0.65721 -0.06730517 -0.24407499 0.44589326 0.38863006 -0.4660285 0.3546825 -0.007481085 0.06505659 0.10130468 -0.53246254 -0.08689858 0.31442514 0.30050963 -0.19209813 -0.23026863 -0.5072291 0.20720296 0.6007902 0.40003976 -0.40488175 -0.24838495 0.30222058 0.1371128 0.0038705969 -0.35995042 -1.0999228 -1.0011683 -0.01521418 -0.31007457 0.17153198 0.09575237 0.2954444
747 -0.077415705 0.024242692 0.4137182 0.29360607 -0.2251066 -0.6263673 -0.6703312 0.06716258 -0.033910908 0.9480601 0.72378194 -0.75561064 -0.56965774 0.23734833 -0.3319466 0.076676086 0.04268414 -0.5714717 0.16016799 1.0558323 0.71316504 0.7581199 0.3284172 -1.0032631 -0.34474352 0.227805 -0.54559743 0.27798474 -0.27529916 -0.12154864 -0.011239404 -0.37129626 -0.02979653 -0.3295121 -0.5661146 0.17143233 0.12504876 -0.3156684 0.62502694 -0.6071061 -0.17313097 0.19785017 -0.64756215 0.23463307 -0.026970532 -0.7208515 -0.19989865 -0.42999852 0.7328984 -0.12805556 0.40920144 -0.44165096 -0.46160516 0.46680543 0.3223886 -0.008254188 -0.37413675 -0.43229643 -0.8159354 0.8443354 -1.2542217 0.44133884 -0.061930656 -0.07774633
3756 0.5696011 -0.35439783 0.57531464 -0.6195494 -0.054329395 -0.33229265 0.0011799539 0.646692 -0.40699825 0.51466614 0.3062084 -0.4607983 0.050258506 -0.10871217 -0.38414523 0.26438296 -0.6843799 -0.6034943 -0.112871125 -0.23006 0.51277035 0.09401711 0.19556627 0.4019464 -0.076134376 0.34846514 -0.2712914 0.29623568 -0.04307637 -0.025231306 1.0330316 1.07573 0.33674303 0.24450997 -0.6779561 -0.20843552 -0.18503205 -0.11062452 0.4681696 -0.35445032 -0.074072845 -0.17492814 -0.55098486 0.47505093 0.29579535 -0.18454552 0.6298921 -0.33063692 0.56288904 0.04444746 -0.09974148 0.09047463 0.22374167 0.024319662 -0.24807993 0.16838814 0.362065 -1.1035324 -0.711177 0.6677522 -0.8539927 0.07452322 -0.81494683 -0.319302
824 -0.4328222 -0.043471266 0.4223937 0.3867967 0.097595364 -0.6081776 -0.6296753 -0.1829507 -0.5349827 1.1046181 0.47122908 -0.78429383 -0.58945775 0.29322866 -0.39893693 0.39044157 0.25053492 -0.22459891 0.19285291 1.2457187 0.78343856 0.73586726 0.27171248 -0.8866977 -0.12850428 0.41635755 -0.6402134 0.81750983 -0.22617936 -0.12833233 0.15528783 -0.1883129 0.2813742 -0.4241192 -0.658937 0.3007234 0.22804219 -0.48324403 0.46361792 -0.26903516 -0.31925562 0.27030316 -0.72413033 0.2332447 0.09795342 -0.2711457 0.0734094 -0.22213206 0.4145802 -0.016091725 0.43199232 -0.28716788 -0.5004858 0.29641566 0.43730965 0.20930521 -0.49854222 -0.7468936 -0.6857049 1.0535177 -0.7478612 0.04320123 -0.06828026 0.06634886
1559 0.20501843 -0.28370097 0.29562074 0.5450423 -0.280829 -0.20051819 0.314791 -0.14362347 -0.15606835 -0.27445748 0.5975105 0.3908236 -0.037481666 -0.7105758 0.38735098 0.38184896 -0.61036813 0.105833165 0.34379205 0.51309484 0.6031945 0.5304242 -0.03842484 -0.49252057 -0.27852148 0.19185188 0.1975703 0.2775401 -0.16427132 -0.09167678 0.30662313 0.19894388 -0.06326449 0.08175257 -0.04592315 -0.07242738 -0.4095329 0.30763784 0.037016965 0.53583366 0.34603813 0.0012902258 -0.2360407 -0.284895 0.5424265 0.017836928 0.14308022 -0.26370755 -0.12280305 0.30399078 0.40010265 0.17132324 -0.47503316 0.48845905 0.13738334 -0.5245902 -0.09977856 -0.6781496 -0.61438745 0.43723452 -0.29460397 0.3155407 -0.44092458 0.3790899
1835 0.26972792 0.10270619 0.38582242 0.20243993 -0.342145 -0.3655305 0.24755292 0.11635963 -0.39986888 -0.2060055 0.5138211 0.27737555 -0.036796298 -0.4657412 0.43718174 0.019279996 -0.54420555 0.25702813 0.045952197 0.5618507 0.73156005 0.47561282 -0.27613842 -0.6411309 -0.50883365 0.28314218 0.0519647 0.16606358 -0.11227368 -0.12386378 0.34498388 -0.03287993 -0.11219804 0.0009952441 0.058566503 -0.10855539 -0.13507771 0.46463037 -0.20863545 0.47615662 0.33203477 0.32532787 0.098171204 -0.14700714 0.5701052 0.027173499 -0.00604685 -0.3856791 -0.07718382 0.33556452 0.27596644 0.13217176 -0.10121248 0.32701328 0.019408181 -0.33271682 -0.38384593 -0.6227318 -0.66317636 0.15558578 -0.46673343 0.28664377 -0.4264794 0.6170749
373 0.05701158 -0.6062648 0.5383719 -0.0869172 0.22806767 -0.35062885 -0.001263488 -0.6463559 -0.2645225 0.34055823 0.08026134 -0.4147504 0.15165779 -0.460581 0.76222235 -0.13733532 -0.9886987 0.12702714 0.12895758 -0.49649408 0.5186571 0.19426273 -0.33090633 -0.5839864 -0.28407547 0.26782084 -0.27486327 0.678578 -0.10538072 -0.21480632 -0.563697 0.026806388 -0.09934733 -0.22684708 -0.15748262 0.4089809 -0.17610034 -0.09072616 -0.26190993 0.020184146 -0.18430424 -0.09090918 -0.7019768 0.1592866 0.896088 -0.25861597 0.09376033 -0.43305796 0.531187 -0.058803014 0.25420696 -0.16802147 0.029024083 -0.4917201 0.2231666 -0.564433 -0.1941248 -0.61517036 -0.77729315 0.28959054 -0.44702443 -0.31052184 0.7003541 -0.30466148
896 -0.37880853 -0.46776235 0.1766121 -0.276574 -0.007946135 -0.33696577 0.24671556 0.19092937 0.33978608 0.028251905 0.15993801 -0.554666 -0.53259736 -0.81889904 0.3798196 0.068903506 -0.39948767 0.39264524 0.1514773 0.067198664 0.3841667 -0.19267055 0.13594839 -0.9761308 0.11995238 -0.047277205 -0.5631187 0.33727667 -0.20426734 -0.39285225 -0.07823975 0.5948671 0.34763262 -0.13988194 0.079916045 0.47049645 -0.37030703 0.54041153 0.07905177 -0.0013572131 0.20853722 -0.6497386 0.1206008 0.30261064 0.40908438 -0.3109823 -0.103760116 -0.4699782 0.11006562 0.2905014 1.0115178 -0.29706633 -0.44675344 -0.10917453 0.3698681 -0.23617099 -0.3165728 -0.7926335 -0.8930812 0.08391946 -0.25134847 0.13646203 -0.13288413 0.20168123
484 -0.05425791 -0.41458297 0.42085925 0.019306364 0.19174844 -0.37932357 0.1255613 -0.48378968 -0.39295986 -0.2585692 0.3890284 -0.117662504 -0.28048554 -0.9629367 1.1223984 0.2395534 -0.7412848 0.10136131 0.06610785 -0.17220792 0.07998987 0.142036 0.045022465 -0.42897725 -0.026156917 0.41509467 0.15176556 1.059196 -0.02393912 -0.079546854 -0.13339801 0.15365477 -0.32752097 0.15854758 -0.19917841 0.21199933 -0.19331826 -0.018914115 -0.09989625 0.25279835 0.2802551 -0.011952826 -0.5722001 0.16062243 0.46198675 -0.096270986 -0.06858059 -0.14407988 0.0767577 -0.098341435 0.16194409 0.037520174 -0.21437164 -0.01696429 -0.0031491972 -0.20139171 -0.31226802 -0.8022668 -0.7707959 0.0031962367 -0.534761 -0.10774002 0.46185076 -0.0028823193
353 0.0057874843 -0.2101206 0.3583347 -0.363006 0.31759882 -0.16797704 0.101523764 -0.5335089 -0.42532137 -0.12913433 0.09784955 -0.3541093 -0.39011523 -0.6331057 0.7380397 0.05881304 -1.1275235 0.15386896 0.12298646 -0.119858876 0.3786763 -0.111810714 0.07814093 -0.5270087 -0.3334955 0.49762395 0.017504646 0.9087556 -0.15294881 -0.45175868 -0.12909378 -0.03541588 -0.42215836 0.06506385 -0.2859984 0.62854874 -0.036209576 0.06574556 -0.29508305 -0.050255463 0.2532579 -0.16858643 -0.51216155 0.10241798 0.36802197 -0.21969958 -0.2887037 -0.4969402 0.24198975 0.18290159 0.37673685 -0.13122636 -0.2600538 0.109122515 0.026104514 -0.39339232 -0.3219953 -0.5655327 -1.0303731 0.15671918 -0.44129574 -0.023304574 0.5417787 -0.24785393
1707 0.25719094 -0.33140546 0.3102897 0.6335997 -0.10520196 -0.4400225 0.284057 -0.0017445395 -0.17350073 -0.46172485 0.4925417 -0.026375357 -0.065228894 -0.37936994 0.36529064 0.2729245 -0.7050638 0.08770475 0.3087401 0.4430878 0.58641726 0.72128516 -0.099694885 -0.53995126 -0.35887688 0.23591341 0.11568029 0.12423902 -0.13414618 -0.4239016 0.50487 0.26896054 -0.015000822 0.07446014 0.19632697 -0.08789659 -0.27210817 0.41802645 0.043700874 0.632382 0.39019218 0.016053991 -0.3097896 -0.30068693 0.40450993 0.22303008 0.053613104 -0.3271014 0.060415454 0.42936793 0.281357 0.16245417 -0.16977474 0.15773854 0.13400905 -0.28062248 -0.4186917 -0.9357756 -0.5032386 0.3569736 -0.55410016 0.086988 -0.27844837 0.2843167
745 0.28902835 0.023676606 0.5086773 0.34057543 -0.029908601 -0.41359884 -0.88158023 0.057925247 -0.24220566 0.89572304 0.5561234 -1.015046 -0.5381456 0.25426084 -0.6022115 0.09916012 0.26186603 -0.19364488 0.06378135 1.105016 0.92465794 0.6322265 0.18866889 -0.67969775 0.14233164 0.41351017 -0.6782066 0.6897388 -0.019003248 -0.35853526 -0.4139006 -0.11786608 -0.014558245 -0.49100366 -0.21601175 0.13104565 0.16187967 -0.5209957 0.7046776 -0.032242704 0.009229338 0.13420475 -1.0405138 0.46464166 -0.022689203 -0.33067235 -0.079025365 -0.30697778 0.44579983 0.062317178 0.38259074 -0.73674077 -0.15783678 0.4401909 0.12633112 0.1128258 -0.3728245 -0.658171 -0.7564087 0.90661705 -0.8954825 -0.051884733 -0.12126708 0.5046206
1714 0.21717963 -0.01580878 0.42673194 0.5009538 0.051573724 -0.35220608 0.09697942 0.03310877 -0.32831854 -0.33878672 0.40658095 0.15800607 0.026018772 -0.6530501 0.33890012 0.15352763 -0.64917284 0.23201127 0.32737732 0.62554246 0.59035057 0.6094456 -0.02129275 -0.50772583 -0.35451314 0.2580221 0.124774076 0.10469295 -0.042471185 -0.2709553 0.47201344 0.25176358 -0.064185746 0.06847799 0.07794386 -0.036514174 -0.2143908 0.47989565 -0.012552278 0.5295861 0.34055737 -0.001143358 -0.1858112 -0.2464269 0.6377454 0.12127591 -0.08523555 -0.3112464 0.10883229 0.34796795 0.37495878 0.28098705 -0.46334767 0.14107841 0.065698095 -0.32356986 -0.30113164 -0.84421974 -0.4742894 0.43291882 -0.5409192 0.19499104 -0.31698507 0.41048166
2754 -0.22172226 0.23085539 0.36214352 -0.30104467 0.69458497 -0.33181617 -0.06997126 0.020833192 -0.25829452 0.28913924 0.37334445 0.22837551 0.3606856 -0.64115137 -0.43009764 0.47400185 -0.10332133 0.88284665 -0.07147274 0.745524 0.9384503 -0.09423256 0.43004242 -0.47820258 -0.086688176 -0.5144459 -0.99794424 0.43298784 0.49056345 0.46801412 -0.13703373 0.17410927 0.59059334 0.25614414 0.17383789 -0.33594054 -0.14035217 -0.23580848 0.36211586 -0.25706416 -0.04144543 0.74484247 -0.7514911 -0.2658724 0.19504863 0.17400436 -0.04128688 -1.2900287 0.07888756 -0.12150334 0.1272326 -0.44552666 0.050960444 -0.33037496 0.38854817 0.070006445 0.531579 -0.42656475 -0.62297344 0.22123751 -0.35630777 0.11793243 0.14979433 0.16111112
3838 0.48366126 -0.8273858 0.4134442 -0.7197208 -0.18570378 -0.10855326 -0.32965338 0.29219538 -0.6484344 0.7004752 0.6737759 -0.3374105 0.052922223 -0.30058742 -0.44970793 0.47087747 -0.69044125 -0.6768745 -0.11402 0.17062207 0.33044901 -0.037824143 0.43324667 0.334359 0.2024004 0.29528925 -0.70020777 0.13416675 -0.139855 0.1956793 0.5122648 0.775896 0.032526605 0.13914903 -0.31775177 -0.3767717 -0.12137236 0.13346297 0.4819365 -0.7202113 -0.08765266 0.15447465 -0.34488583 0.084408365 0.7646794 -0.34400263 0.46969366 -0.13779989 0.4444815 0.030458426 0.13360764 0.1332398 0.019338137 -0.44096747 0.22690536 -0.1524449 0.41759196 -0.9634819 -0.48868775 0.20839973 -1.160845 -0.0909277 -0.8565792 -0.18819678
1376 0.5336473 0.0325948 0.29830667 0.23339236 -0.1582363 -0.3670641 0.2929262 0.11559951 -0.42079213 -0.32592866 0.3162677 0.2674679 0.05174012 -0.6323937 0.2865217 0.13981803 -0.69153416 0.27325326 0.18874413 0.5686377 0.73032504 0.5110753 -0.2438773 -0.55568624 -0.46593255 0.23589188 0.025558356 0.0078076418 -0.07424587 -0.29799518 0.36644766 0.21036951 -0.08007455 0.098619804 0.1527971 -0.06627097 -0.07807435 0.43534845 -0.18744221 0.5988461 0.35847855 0.052878685 -0.11521369 -0.18427156 0.51017445 -0.032503106 -0.036850665 -0.35110345 -0.04805466 0.34033388 0.3982452 0.1855248 -0.24962303 0.29930624 0.060465794 -0.4157811 -0.4281374 -0.6234037 -0.46359396 0.22051014 -0.3785672 0.3927832 -0.3868417 0.28230324
1078 0.3032983 -0.29645422 0.46015188 0.54029894 0.010513458 -0.2796208 0.15724906 -0.029360214 -0.04375865 -0.45648554 0.5497241 0.3082348 -0.054939285 -0.5116166 0.3154318 0.13195129 -0.637271 0.16860372 0.29944554 0.5194083 0.4580716 0.69077057 -0.104712754 -0.6147731 -0.21432984 0.21883564 0.12716283 0.16287902 -0.1760487 -0.31315386 0.31705913 0.2579043 -0.041609675 0.21963653 0.029400153 -0.1110889 -0.24410291 0.47091612 -0.0031104884 0.6382574 0.4003017 -0.12676749 -0.33186495 -0.18182458 0.55315757 0.011538627 -0.09396223 -0.2636707 0.026308225 0.20484436 0.23052347 0.28042173 -0.30043423 0.08780637 0.20720394 -0.45446685 -0.38525683 -0.68820435 -0.5616458 0.3985387 -0.56521565 0.15006836 -0.18613918 0.3353397
1277 -0.3837627 -0.4389181 0.10675023 -0.42196795 0.025822103 -0.37188175 0.23506074 0.09651443 0.40989742 0.061586063 0.06491948 -0.45294115 -0.42575437 -0.87304884 0.37914783 0.09773837 -0.4959261 0.45243925 0.21658665 0.0126504665 0.39188823 -0.051417205 0.04232179 -1.0174001 0.11595352 -0.08576066 -0.4868724 0.34700167 -0.1341247 -0.47079715 -0.0705409 0.65236557 0.4035822 -0.1743548 -0.12272 0.43670964 -0.48239705 0.40462855 0.23334825 0.034226444 0.13441648 -0.61017025 0.20187557 0.25168705 0.539488 -0.19793431 -0.10637969 -0.44523516 0.27213416 0.45389527 0.91647595 -0.2851869 -0.45518807 -0.19925803 0.26507163 -0.2058272 -0.23529492 -0.77462703 -0.8644009 -0.097579084 -0.25647268 0.21022189 -0.09432128 0.20231934
1613 0.25051588 0.020105546 0.37336683 0.39405513 -0.13887063 -0.27829674 0.1810313 0.10045344 -0.26701778 -0.36822632 0.4558868 0.33774582 0.12003298 -0.69215685 0.3865947 0.20983411 -0.6279277 -0.08498571 0.40995783 0.39969587 0.7306461 0.5980623 -0.2582676 -0.4564978 -0.18859483 0.1737107 0.21215457 0.23794325 0.1459364 -0.44913945 0.35243818 0.17867474 -0.044182517 -0.05699763 -0.015952457 -0.15589613 -0.345596 0.32682016 -0.07330588 0.5895953 0.3446684 -0.08555158 -0.10669728 -0.085818686 0.49275494 0.07981409 -0.09182925 -0.30191255 0.16891144 0.45196322 0.35260114 0.16832098 -0.37546065 0.29960436 -0.0452869 -0.30485454 -0.34582204 -0.8398197 -0.51745975 0.30877542 -0.5699401 0.019042874 -0.4473995 0.37311944
823 -0.15449895 -0.012574015 0.13648778 0.3182328 -0.043910608 -0.5127728 -0.5999798 0.041765135 -0.33864993 1.2822814 0.43448728 -0.58372694 -0.6488429 0.11083472 -0.40276223 0.27725822 0.11871623 -0.43569446 0.3175262 1.1033715 0.46128848 0.55341953 0.5453861 -0.9441541 -0.23953652 0.4216054 -0.7373052 0.77085537 -0.047185495 -0.12277573 0.21225858 -0.20860933 0.037702024 -0.25459036 -0.37541148 0.16640098 0.09274599 -0.50415087 0.4842758 -0.3711261 0.03840341 0.16060936 -0.79432005 0.37947527 0.12032827 -0.6177097 -0.17626467 -0.35083118 0.58167297 0.035501175 0.23851068 -0.58814627 -0.56269395 0.45620418 0.3237357 0.14464082 -0.43350437 -0.514427 -0.74328226 0.99489814 -0.9147449 0.27377746 -0.086243525 0.09547317
363 0.11557883 -0.42570186 0.23744585 -0.28742713 0.23867488 -0.09374882 0.021486264 -0.5046599 -0.40246326 -0.2566239 0.22442013 -0.17340663 -0.057420757 -0.6900611 0.9462513 -0.10173339 -0.6868191 0.18459792 -0.028590728 -0.3930994 0.37394723 0.11942627 0.25430307 -0.31335914 -0.20561166 0.49108705 -0.15566114 1.0588332 -0.2745206 -0.48541805 -0.3295214 0.15471214 -0.27225384 -0.032567043 -0.15927431 0.5785963 -0.41839817 0.14895684 0.038533047 0.14967106 0.3539893 0.044435352 -0.56055397 0.30153036 0.8570912 -0.30908796 -0.19503757 -0.35092768 -0.008963317 0.10160746 0.0578781 -0.42393196 -0.17161664 -0.12106213 0.15086408 -0.478942 -0.18129282 -0.3909806 -1.069728 0.36541346 -0.4269897 0.08387398 0.4827451 -0.2373974
3116 0.20336503 -0.24804303 0.59967595 -0.2758265 0.19554824 0.10033195 0.09247373 -0.020066297 -0.40477872 0.23206313 0.8191834 0.35448375 -0.11260191 -0.11909755 -0.059651397 0.756792 -0.22558108 0.20665628 0.035898734 0.45782048 0.8053584 0.009933386 -0.058080494 -0.64677525 0.13171689 -0.004402175 -0.7788611 0.18247536 0.36979255 0.13069691 0.07014736 -0.5172412 0.7338787 0.36079913 -0.07152152 -0.22745132 -0.66865927 -0.010133774 -0.08209142 0.1321075 -0.31539923 0.8171348 -0.43178946 0.40811595 0.14895684 -0.41804892 -0.23895289 -0.21563062 0.011887863 0.14926742 0.58249724 -0.44668186 0.73488647 -0.1060542 0.37446228 0.42965296 0.4884715 -0.71968275 0.033890355 0.20684502 -0.39625573 0.67029727 0.5193506 -0.05870013
3051 0.50118464 0.06932487 0.91478 -0.44915628 0.40362936 0.06856418 0.2997313 0.45485622 -0.25764307 0.33394846 0.7854983 0.37142164 -0.15505947 -0.023925345 -0.23690274 0.55546325 -0.17649986 0.1315333 0.28424767 0.5416258 0.6491129 0.19111785 0.06060873 -0.6821689 -0.11486415 -0.35720623 -0.53798366 0.372398 0.2778116 -0.030271752 -0.038503323 -0.12559499 0.38105458 0.2710772 -0.17752613 -0.11613187 -0.50104725 -0.121947564 -0.33672562 0.022423916 -0.2651267 0.7770022 -0.7383617 0.2652768 0.29733083 -0.46009612 -0.057450037 -0.2745357 0.08572776 0.26676407 0.9583798 -0.25159872 0.6109496 0.15096939 0.16488576 0.34921166 0.5119908 -0.38127667 0.09906283 0.17881061 -0.5623788 0.63533986 0.39712667 -0.21984114
1399 0.18258217 -0.19245265 0.29449138 0.39654225 0.13403927 -0.4619642 0.06029725 -0.013498158 -0.19036557 -0.2599913 0.69866467 0.25374043 0.030279785 -0.5070414 0.3580125 0.22017626 -0.66084486 0.17774568 0.46431684 0.400924 0.4436651 0.6930409 -0.054472715 -0.6982646 -0.48071855 0.15334679 0.11138205 -0.03240202 -0.04593752 -0.29225233 0.4962854 0.39450735 -0.1359009 0.29302576 0.13383153 -0.015243104 -0.28038865 0.44804314 -0.009072841 0.5149117 0.5473719 -0.030749673 -0.097818986 -0.12687111 0.62373585 -0.059806343 -0.15595444 -0.14314839 0.05830107 0.2607989 0.3526251 0.28137857 -0.24728881 0.20916352 0.25110912 -0.33071724 -0.2853105 -0.82386106 -0.49924317 0.67110354 -0.3533035 0.25022227 -0.33957604 0.34543893
2719 0.255609 0.14519964 0.8027916 -0.18791123 0.546377 0.093834594 0.24246651 0.3008605 -0.23846231 0.10945745 0.63362354 0.39547 -0.3200204 0.014347192 -0.15337367 0.63872796 -0.34729892 0.3590815 0.27532554 0.37413937 0.8283712 -0.042289533 0.15891361 -0.54849374 -0.026205659 -0.13749115 -0.56804913 0.13900405 0.23117773 -0.16946027 0.26938793 -0.11513353 0.35024098 0.26422232 -0.35906902 0.03963629 -0.7652153 -0.20309965 -0.25519195 0.13785157 -0.3767803 0.7253772 -0.7211618 0.26858982 0.20292665 -0.46479174 -0.30962738 -0.1214241 0.06338978 -0.079774834 0.5642586 -0.68177366 0.50708973 -0.17356873 0.17413259 0.5128948 0.3141642 -0.7139873 0.14128056 0.2851474 -0.5602199 0.62231195 0.3584143 -0.44467476
1610 0.25075346 -0.28749713 0.4204582 0.49198905 -0.17323503 -0.38061476 0.12641601 0.046281952 -0.20743479 -0.49673718 0.52249163 0.26846728 0.043176662 -0.6579342 0.45955923 0.37355092 -0.38052768 0.041756652 0.40735245 0.2286072 0.6473554 0.6648833 -0.2906767 -0.64429784 -0.2866071 0.17771609 0.07765748 0.00063977507 -0.20976068 -0.29844052 0.36672518 0.29465237 -0.01059672 0.18385398 0.31304544 -0.13738835 -0.36419734 0.28808752 0.16041303 0.5562714 0.31533098 0.005538813 -0.20350088 -0.28449896 0.61351943 -0.06429209 -0.21025042 -0.25692758 0.0024483677 0.4371929 0.26660526 -0.017856393 -0.37830618 0.107234426 0.06453349 -0.26563033 -0.38678572 -0.71219856 -0.5354412 0.5421938 -0.5847267 0.10768141 -0.38005653 0.41359645
366 -0.11846052 -0.29971084 0.18057424 -0.2864909 0.56453514 -0.2619982 0.09678982 -0.609052 -0.31131154 -0.113987684 0.29915807 -0.30998585 -0.13716839 -0.62569004 0.77188987 0.0046839006 -1.1174409 0.2542811 0.16360337 -0.17728288 0.17053121 -0.004171042 0.07112986 -0.30213138 -0.32924977 0.44554484 0.14094381 0.89816207 -0.1537626 -0.32841104 -0.17086007 0.020799182 -0.22366229 -0.11662281 -0.40807027 0.4112274 -0.09830102 0.15824854 -0.16135816 0.18164198 0.23503157 -0.040826593 -0.5904755 0.3609412 0.5839103 -0.25488326 0.07983967 -0.5224482 0.1438226 -0.055899777 0.33250672 -0.15961866 -0.2618718 -0.06612447 0.72636926 -0.16087435 -0.50500566 -0.6403154 -0.79394966 0.27062 -0.29994383 0.07131698 0.48045933 -0.21704692
3948 0.5239685 -0.58600503 0.64130896 -0.46012858 0.05778592 0.25205672 -0.33005226 0.80165684 -0.38880318 0.6524804 0.40783566 -0.10172364 -0.072159566 -0.32675403 -0.40849718 0.005167386 -0.87697333 -0.4433182 -0.21572398 0.26209745 0.20105629 -0.27280372 0.39262718 0.16743296 0.23781729 0.44995773 -0.27736923 0.31384155 0.003838871 0.24844895 0.6336368 0.73014075 0.49713948 0.011399165 -0.7514615 -0.35080785 -0.09930261 0.05221796 0.26105264 -0.42668897 0.035211977 -0.3437543 -0.520805 0.6135845 0.39697558 -0.059859376 0.5987874 -0.3395484 0.41452065 0.18921617 -0.016259974 0.031195557 -0.05266757 0.078269586 0.09208353 0.03092671 0.2472906 -0.948832 -0.53719693 0.7245486 -1.0629643 -0.08117056 -0.89537317 0.057175204
2661 0.16898589 -0.17152597 0.5825282 -0.1517057 0.38590553 -0.011541382 0.10263398 0.13321272 -0.49305892 0.3171862 0.78317314 0.41964054 -0.1816733 -0.061023943 -0.33971664 0.606615 -0.25637105 0.46715462 -0.0028522734 0.25945473 0.766698 0.05283979 0.22855516 -0.6326289 -0.0529948 -0.01593741 -0.7208111 0.0904775 0.36111706 0.0741602 0.0791461 -0.41992489 0.65509033 0.41543946 -0.2729877 0.06707106 -0.73195606 -0.095469736 -0.012690659 0.15808967 -0.4262138 0.6038675 -0.39750716 0.265888 0.3480912 -0.45117337 -0.24133806 0.0016287888 0.0043619494 0.27583003 0.72337687 -0.6055886 0.608618 0.09594436 0.22690569 0.41281405 0.4718811 -0.660237 0.16937882 0.17127489 -0.56970954 0.4949378 0.36445746 -0.1391711
513 0.17345685 -0.40558195 0.5926934 -0.22215633 0.09485534 -0.48906326 -0.18293087 -0.4659841 -0.47203407 0.11323135 0.17927068 -0.27165022 -0.013536256 -0.5700652 0.7488793 -0.02013242 -0.9765362 0.30215427 -0.14308318 -0.38536954 0.15002328 0.013058381 -0.15613116 -0.59012604 0.019065367 0.34121814 -0.16822171 0.62155735 -0.037412286 -0.37732038 -0.6048299 -0.24675195 -0.32584223 -0.27715045 -0.21959034 0.22632724 -0.105646595 0.01843698 -0.1222986 -0.04656552 0.049426276 -0.26870134 -0.6016689 0.24166457 0.5761342 -0.5366304 -0.18196084 -0.66263074 0.15545931 -0.21674547 0.41323528 -0.08291794 -0.22328092 -0.3275906 0.18352069 -0.5262504 -0.21479093 -0.59860665 -0.8967542 0.16903457 -0.87528664 -0.5366791 0.57793903 0.024284517
2384 0.64362085 -0.029159764 0.14489342 0.39256886 -0.099675946 -0.5307738 -0.1959995 0.14056087 -0.45674723 0.14350466 0.061933268 0.01316848 -0.13609065 -0.88175994 -0.36129415 0.29787308 -0.2782182 0.00019382086 -0.72392195 0.66092193 0.7962129 0.29240274 0.065202095 -0.7065503 -0.10531087 0.26711062 -0.09236822 0.10925489 0.15241118 -0.05898987 -0.24771503 0.23128535 0.31778982 -0.65165883 0.1937264 0.60279655 -0.33175924 -0.31407958 -0.2577804 -0.35487518 -0.019277425 -0.08498522 -0.19923344 -0.006255537 0.4647535 -0.40345928 -0.37167907 -0.43134832 0.29850942 -0.5084067 -0.5554032 0.19615227 0.4323707 0.0352667 0.6298978 0.48491618 -0.26207048 -0.52816784 -0.14420353 -0.10083349 -0.023140108 0.35136577 -0.81843644 -0.2134625
3851 0.42046952 -0.45018253 0.6109824 -0.17564313 0.13077444 0.13965508 -0.2590602 0.39589116 -0.45367923 0.53415424 0.30001634 -0.06642308 -0.20464054 -0.35246968 -0.60942024 0.18072325 -0.8917554 -0.75967824 -0.04445313 -0.11584618 0.20583697 -0.1379459 0.24832124 0.35601243 -0.060689438 0.5720809 -0.53711176 0.29761967 -0.30525082 0.50552166 0.7282553 0.59239274 0.17721514 0.1233297 -0.41198853 -0.30860695 -0.2885856 -0.010153887 0.51922214 -0.5104586 0.064121775 -0.2632415 -0.3876216 0.4009114 0.6158381 0.084598966 0.21090484 -0.15696084 0.43637663 -0.024560384 0.053791948 -0.015832843 0.17217329 0.040660065 0.27876037 0.034273386 0.48422053 -1.1536292 -0.6086878 0.32441553 -1.3188227 -0.057551645 -0.61752194 -0.08270445
1622 0.15242031 -0.17212859 0.3299862 0.18895024 0.075799495 -0.15002787 0.32929298 0.013880922 -0.15083142 -0.2935901 0.65029186 0.13991399 0.0053605614 -0.47707227 0.27436486 0.15782933 -0.5612418 0.14766245 0.1355163 0.40719473 0.8249014 0.540633 -0.24023196 -0.5480359 -0.48919782 0.3415813 0.27945608 0.15998416 0.15739673 -0.4796688 0.38567746 0.088518195 -0.13434407 0.15288767 0.26891038 -0.0008756257 -0.20589228 0.35202757 0.113771774 0.56769097 0.34052396 0.10932872 -0.1038507 -0.31195116 0.63941294 -0.14614537 -0.21770124 -0.20493178 0.111597456 0.27345172 0.30005032 0.0377098 -0.342663 0.29200047 -0.23630567 -0.213825 -0.3963436 -0.84699523 -0.38621086 0.37240118 -0.5481288 0.36084765 -0.4013102 0.39137176
2793 0.24803671 -0.24337249 0.5516033 -0.34809512 0.27622503 0.1593777 0.051744353 0.18568338 -0.51538754 0.19195367 0.81698906 0.21102111 -0.12751345 0.04739569 -0.47144645 0.5637776 -0.17530613 0.40823975 0.004206291 0.51943827 0.6911933 0.36411336 0.07809333 -0.80963284 0.09359666 -0.102792636 -0.7273198 0.19478689 0.4218896 -0.2648085 0.0331236 -0.2671179 0.57762724 0.37246603 -0.14506336 -0.16760692 -0.7431679 -0.26314625 -0.21034536 0.19414996 -0.19675383 0.6659199 -0.5902735 0.43288267 0.029458577 -0.2620414 -0.32746693 -0.076167256 0.007203442 0.19308273 0.5769323 -0.5577703 0.83817077 -0.11181101 0.2332291 0.22840844 0.5497929 -0.6691577 -0.027451467 0.08819194 -0.4812691 0.5715766 0.43904027 -0.18540116
2716 0.23585601 -0.2188182 0.5268719 -0.19700368 0.28150666 0.24862142 0.077910095 0.4708592 -0.46059558 0.06828126 0.79835445 0.61182505 -0.16580139 0.19993816 -0.54048824 0.51257026 -0.39498675 0.49576774 0.004803828 0.29339665 0.729411 0.3681241 0.27062416 -0.69635874 -0.38438115 -0.30385214 -0.4317746 0.4304782 0.22788893 -0.09333657 -0.24923095 -0.022180773 0.5860495 0.29164964 -0.35156965 -0.07609787 -0.72096485 -0.0872218 0.14345165 0.11286021 -0.2715652 0.61100173 -0.6457383 0.522987 0.10070998 -0.7133334 0.06826836 -0.09502643 -0.10833202 0.29753473 0.7664475 -0.7649218 0.63253284 0.0030739773 0.52752286 0.024706425 0.33735842 -0.4436097 0.0037705626 0.018145885 -0.3951103 0.36522275 0.35870257 -0.3066747
1391 0.16118315 -0.26961163 0.38964972 0.3682879 -0.22995938 -0.39266032 0.2871877 -0.041833393 -0.28765407 -0.33185634 0.41583544 0.13509244 -0.020310907 -0.56644493 0.37052295 0.17122683 -0.47599366 0.20083316 0.32964382 0.4145261 0.609309 0.6544271 0.07686621 -0.51615196 -0.3403583 0.43298158 -0.0026880319 0.10287909 -0.08835768 -0.2588068 0.26692232 0.069199905 -0.092950664 0.26803184 0.12908986 -0.016103974 -0.3318725 0.4743808 0.0751095 0.5090215 0.5226274 0.04070516 -0.35678518 -0.20468496 0.5326932 0.13518186 -0.23015703 -0.24180955 0.12671924 0.3076577 0.3347659 0.32595026 -0.27981633 0.40064973 0.04996482 -0.47445804 -0.16802521 -0.889057 -0.42331517 0.16360885 -0.6161523 0.29490563 -0.51908535 0.65181607
830 -0.051008232 0.31275484 0.3295596 0.28477487 -0.054828487 -0.3860657 -0.7479152 -0.096325934 -0.46617812 1.2282219 0.68042684 -0.8851804 -0.29468143 -0.05043536 -0.27844328 0.08221787 0.37122622 -0.114019915 0.07117834 1.097285 0.7090587 0.56086624 0.39436725 -0.9096729 -0.27007782 0.4678534 -0.6679242 0.5638631 -0.23257911 -0.13906227 0.1511414 -0.0201123 0.1898648 -0.45260185 -0.48495734 0.04036117 0.043422792 -0.5862234 0.64359295 -0.34412655 -0.26518503 0.426319 -0.843074 0.46941113 -0.08097057 -0.49962953 -0.117473036 -0.12426577 0.36366972 -0.041491207 0.36292914 -0.21629164 -0.5858655 0.45547882 0.15090497 0.17518157 -0.4467587 -0.8984416 -0.77420545 0.73323053 -0.96458167 -0.055894986 -0.20525545 0.3020723
2111 0.7154062 -0.21838413 0.03644416 0.35168123 -0.17105377 -0.3930105 -0.3562207 0.32361373 -0.48960516 0.23575088 0.14687489 -0.08948148 -0.263373 -0.77103513 -0.41900083 0.27240434 -0.45844314 0.019344369 -0.73850125 0.66406053 0.81722456 0.5309364 0.01752281 -0.548119 -0.19294062 0.38903865 -0.22803606 0.077652454 -0.040811114 0.011040128 -0.2793183 0.06579486 0.4825295 -0.58761543 0.23263262 0.65024835 -0.5447666 -0.3887233 -0.05877942 -0.27321172 0.18207745 -0.1893546 -0.053052627 -0.1256481 0.55971926 -0.089331344 -0.18459941 -0.53423876 0.034940135 -0.7035661 -0.41513005 0.23078601 0.49999017 0.15827015 0.42813346 0.351008 -0.21878825 -0.21910359 -0.29876342 -0.009129581 -0.03772486 0.42729342 -0.56921804 -0.06769576
1941 0.41184893 0.19879904 -0.41260144 0.026195116 -0.21915157 -0.48275676 0.23927964 -0.09909332 -0.6012815 0.28368387 0.53001165 0.19692257 -0.119866416 -0.5566315 -0.3580327 0.51737255 -0.7412839 -0.08455613 -0.4358597 0.53676766 0.55621976 0.5703565 -0.09741446 -0.61573786 -0.13299005 0.14719017 -0.13643849 -0.43118647 -0.102579564 0.18365327 -0.40241408 0.29755443 0.66328555 -0.757167 0.5420864 0.8404979 -0.12203691 -0.40681684 -0.057821397 -0.4773278 0.05734513 0.054667134 -0.28947955 0.4862144 0.21284544 0.18630521 -0.19974263 -0.65735567 0.22889361 -0.07731602 -0.40338674 0.5904613 0.43117154 0.11848199 0.5324082 0.33295256 -0.23676817 -0.49906826 -0.20186235 0.122092515 -0.32443014 0.02381449 -0.5738937 -0.4553967
694 0.054331757 -0.19781165 0.4250368 0.32801738 -0.051402055 -0.4819822 -0.56444126 -0.048174303 -0.45155612 0.9385123 0.3981274 -0.7953311 -0.5820929 0.32222965 -0.29584885 0.23147392 0.48503637 -0.3940596 0.26686352 1.0466028 1.1126866 0.8000035 0.26338503 -0.6006239 0.13458598 0.6792174 -0.8763164 0.51381814 0.13835916 -0.4435025 -0.055381775 -0.14530739 0.14148605 -0.3303941 -0.64737976 0.47914624 0.20661202 -0.6659469 0.7855202 0.06126983 -0.07410179 0.27628186 -0.68997204 0.13501248 -0.028025294 -0.5161629 -0.32386637 -0.12984572 0.44741774 -0.2937441 0.49838385 -0.52538025 -0.6519878 0.16651928 0.28044558 -0.0056620496 -0.41019434 -0.6474555 -0.89405555 0.58598584 -1.1055295 0.22375569 -0.19016054 0.18142605
3154 0.59312105 0.1715713 1.0808117 -0.6953024 0.12964733 0.20112176 0.22725965 0.0071614133 -0.50235546 0.29202068 0.7212058 0.1292142 0.2633379 0.19673942 -0.30603582 0.34347638 -0.2162253 0.47656992 -0.055909142 0.44700575 0.9299223 0.29194552 0.23172791 -0.4362188 -0.39405113 0.055339847 -0.68382335 0.078192234 0.34334928 -0.36458617 -0.12438157 -0.051544182 0.47538924 0.30923152 -0.35467875 -0.14422022 -0.44506004 -0.12839526 -0.23611145 0.5583691 -0.08461238 0.68265975 -0.5123434 0.10216548 0.039158005 -0.24520382 0.0025835384 -0.13925163 0.036300126 0.34011137 0.8253258 -0.5738473 0.3627492 0.116451725 0.5884064 0.04953672 0.5312279 -0.5148129 0.033113606 0.067554414 -0.21457323 0.4981001 0.15577702 -0.5744308
2730 0.26415527 0.33710226 0.8334917 -0.42927355 -0.3080429 -0.036355685 0.6585578 0.29568338 -0.42102364 0.072374545 0.8534607 0.09495596 0.070176855 0.121084325 -0.25596252 0.543486 -0.2295892 0.302646 -0.31625065 0.33574566 0.96883446 0.1847957 0.30597726 -0.9179195 -0.31177908 -0.095115304 -0.28128123 0.3282721 0.31599993 0.23711668 -0.075249396 0.08554407 0.5709081 0.51532114 -0.21659455 -0.214446 -0.76572603 -0.21477231 -0.23760946 0.38496247 -0.5479556 0.72595763 -0.6108601 0.2470439 -0.066378966 0.013872476 0.058088157 -0.43952766 -0.50294435 0.0028404365 0.78476155 -0.25564262 0.23065348 -0.07130831 0.36184785 -0.47399914 0.4758719 -0.58225965 -0.16649325 0.19704938 -0.23343939 0.06305172 0.08730359 -0.73760796
1471 0.20569892 -0.2327383 0.6903665 0.6159036 -0.11416865 -0.28280598 0.15363309 0.022277068 -0.3029036 -0.38651147 0.36225408 0.21799046 0.055627745 -0.6822002 0.3478095 0.39239064 -0.56795204 0.21625613 0.5778076 0.5907573 0.37301025 0.641716 -0.27473632 -0.53635585 -0.22748202 0.15100762 0.17922975 0.1176862 -0.25264156 -0.28954372 0.29685798 0.091812715 -0.034958325 0.13061383 -0.01730024 -0.13195445 -0.41000313 0.2997955 -0.1253155 0.3172879 0.46977466 -0.05587657 -0.40439874 -0.1917436 0.5337802 0.33735755 -0.29148716 -0.32855326 -0.0612394 0.46370858 0.4409184 0.11068609 -0.6565337 0.19239274 0.20057979 0.1607885 -0.27858254 -0.64246166 -0.7613069 0.43857223 -0.5327523 0.38075727 -0.4556249 0.27519894
1211 0.2974225 -0.25373408 0.34367225 0.6291762 -0.0125554195 -0.25534925 0.17965573 0.0102137765 -0.20949206 -0.3966183 0.5447372 0.13020507 -0.13341406 -0.5984705 0.23345597 0.07041427 -0.66265714 0.096214294 0.28825873 0.4618305 0.37898135 0.80706966 -0.011779877 -0.69734603 -0.26665702 0.244745 0.14329842 0.0077399355 0.06901371 -0.3339318 0.5155582 0.211588 -0.09038166 0.10319807 0.08882608 -0.03907111 -0.3734325 0.58565366 -0.08760501 0.5290881 0.3441022 0.035229813 -0.30066407 -0.17915758 0.36501276 0.0534537 -0.0035371664 -0.25335988 -0.114171386 0.098475315 0.41015694 0.10353787 -0.20005062 0.06687109 0.1031063 -0.20925535 -0.37073982 -0.791439 -0.64149463 0.5986403 -0.50372416 0.08630661 -0.35447302 0.39567062
3611 0.34736183 -0.6492436 0.40790048 -0.5531596 -0.02981103 0.17516847 -0.34183583 0.36425832 -0.69791037 0.6847496 0.7427434 -0.18046646 -0.16336843 -0.251945 -0.5719495 0.28460082 -0.6028546 -0.9235335 -0.1854933 0.110271886 0.54569143 0.049634803 0.25909263 0.31123564 0.010254964 0.47786188 -0.8066105 -0.0449715 -0.18603614 0.29219115 0.4068554 0.70617974 -0.122134276 0.20005158 -0.4662278 -0.27003482 -0.042611994 0.14461876 0.50880027 -0.632449 0.09179021 -0.23154603 -0.45655495 -0.07389312 0.7562354 -0.15284057 0.42954138 -0.20983863 0.30605578 -0.0031316234 0.05531597 0.04495068 0.09536299 -0.20073743 0.27726808 -0.2818113 0.30605462 -1.0477715 -0.49010786 0.32750478 -1.1590736 -0.094451785 -0.65280545 -0.51026493
4030 -0.47303346 -0.63958013 1.0561769 -0.0078043058 -0.06785387 -1.3138282 -0.63469857 -0.37687576 -0.6822751 0.71954983 0.81113505 -0.28226507 0.67654413 -0.976064 -0.7181978 0.7123706 -1.0161005 0.119235896 -0.3588277 0.07967864 1.1335281 0.5660096 1.2719172 -0.2007731 -0.17783763 0.29915977 -1.3445334 0.002525734 -0.52571166 -0.80628896 -0.24611063 -0.4800877 -0.13069536 0.43886518 0.7246131 0.28599364 -0.44276893 -0.2603086 0.41795054 0.18969193 -0.2533638 -0.025747716 -0.44202453 0.03671716 0.07035133 0.16034845 0.56312156 0.32504156 0.46300492 -0.61055446 0.5319855 -0.47115207 -0.050294127 0.5570379 0.64873993 -0.23731029 0.10047723 -0.4105978 -0.53847826 0.13185635 -0.33046162 -0.2982792 0.3442709 0.0922243
2778 0.38046628 -0.044935662 0.83740795 -0.25804302 0.32105166 0.09718211 0.28154653 0.36456698 0.0061239502 0.13296847 0.6462074 0.24154772 -0.2536821 -0.093533754 -0.09373655 0.63435477 -0.30032328 0.122432105 0.115665704 0.71471435 0.78670883 0.007108388 0.39116326 -0.54021555 -0.09431964 -0.099747024 -0.53899217 0.145892 0.30497912 0.17668922 0.27087474 -0.2208545 0.37738973 0.24552085 -0.18071006 0.096059054 -0.8987063 -0.023621175 0.13814102 0.22237892 -0.5006798 0.8348001 -0.61095417 0.22169101 0.16681895 -0.65529734 -0.50390035 -0.20909011 0.11182584 -0.041104075 0.67151266 -0.47377 0.40926114 -0.0949097 0.25315207 0.3957463 0.443583 -0.70453817 0.26012063 0.18043543 -0.58772117 0.37910452 0.5142098 -0.42909727
98 0.423579 -0.77914023 -0.20977767 -0.40140545 0.49577245 -0.43442437 -0.38048413 0.27303755 0.34295687 0.2507825 0.51128554 -0.3732975 -0.3578947 -0.32911468 0.11570218 0.7432245 -0.17251967 0.25057876 0.34709373 0.49582624 0.97980833 0.31901428 0.4772965 -1.144949 0.14940082 0.41483384 -0.35093558 0.25027388 -0.18788852 -0.42882955 0.076162234 0.14503524 0.22834313 -0.5619698 -0.013606591 -0.5195715 0.40329286 0.048528228 -0.09430636 -0.096864566 0.011182521 -0.22765918 -0.53313744 -0.07879138 0.7551638 -0.06186255 -0.3217566 -0.39636466 -0.5262575 -0.016910935 -0.18304706 0.39791322 0.28010696 0.829065 0.8126885 0.49877563 0.5618281 0.019387353 -0.6182277 -0.26581028 -1.0013051 -0.22952102 -0.16799101 -0.7456023
697 -0.005043355 -0.04242481 0.05183411 0.10192769 -0.24428383 -0.24857478 -0.6410815 -0.15104432 -0.12842964 1.2229167 0.6778678 -0.8875222 -0.5177558 -0.06978343 -0.17473663 0.28108302 0.05753437 -0.43138134 -0.022591911 1.1854616 0.748441 0.4767272 0.66098934 -1.0558654 -0.56100374 0.47531688 -0.55840003 0.68432486 0.002537587 0.16766769 0.10358987 0.027604768 0.17581236 -0.39743254 -0.65909815 0.2668132 0.13649677 -0.680903 0.65717363 0.04842304 -0.1339345 0.36949837 -0.63678104 0.10923459 -0.26326057 -0.38657057 0.12319936 -0.018963013 0.6491717 -0.04308508 0.19314785 -0.5447852 -0.68551105 0.42041558 0.2706052 0.1503128 -0.47480908 -0.5759793 -0.9030462 0.87293756 -0.9832403 0.17882483 -0.027880637 -0.0077793896
3584 0.5922763 -0.36079106 0.9578823 -0.085865945 0.06676164 -0.13527179 -0.6127436 0.5974515 -0.6069445 1.0352693 0.5074898 -0.68939155 -0.304099 -0.58662313 -0.44484738 0.5951396 -0.6054895 0.20181231 0.34122682 -0.028985789 0.65367985 0.5259623 0.17090409 0.3950002 0.16854002 0.17285167 -0.33658105 0.18867528 -0.2958559 0.53599566 0.42491397 0.39637354 0.7674677 -0.3465635 0.2057423 -0.6895457 0.028153887 0.10621756 -0.15321283 -0.42855513 0.31597984 -0.53517103 -0.67322695 0.10606518 -0.28214756 -0.6094916 0.28183332 -0.37803897 0.45515358 0.26387578 0.0750264 0.6152819 -0.13539775 -0.37548605 0.31663415 -0.6096591 0.40641758 -0.7129542 -0.7641686 0.24535899 -0.68026567 -0.04831943 -0.10226472 -0.7277064
3495 0.6513924 -0.6146578 0.680443 -0.2488541 -0.03025382 0.077765256 -0.18440305 0.50292045 -0.407633 0.6761332 0.3927356 -0.12349689 0.039562065 -0.42227414 -0.56648856 0.0017053422 -0.59674776 -0.47746965 -0.089742675 0.13913184 0.31713474 0.08597895 0.23609608 0.084209494 0.5812511 0.6409854 -0.5090967 0.37662598 0.017719347 0.3050785 0.60153514 0.4325504 0.25476083 0.14639147 -0.8669935 -0.65659297 0.0563392 -0.19055584 0.4425745 -0.58773786 0.2654619 -0.46826804 -0.2722721 0.5333534 0.7738106 -0.2171034 0.4038463 -0.16625178 0.8159068 0.10483275 0.08186304 -0.19110683 -0.16683479 0.13642399 0.10857735 0.06979267 0.37946296 -0.7575219 -0.6330334 0.5380189 -0.9644127 0.18085445 -0.8019155 -0.036265027
1551 0.3057506 -0.09458412 0.38759345 0.45189285 -0.21781668 -0.47719672 0.29993019 0.049531605 -0.085765556 -0.40243652 0.5553354 0.118673444 -0.06667951 -0.5543613 0.34893653 0.13905732 -0.54518944 0.20695913 0.22318347 0.51646626 0.512875 0.7341558 -0.07033598 -0.48596197 -0.27917048 0.45440307 0.08843745 0.32067916 -0.1629169 -0.17362209 0.32049242 0.12800282 0.014458478 0.22848222 0.031574525 -0.102502756 -0.33111045 0.40338343 0.15123476 0.6866004 0.328634 -0.080568135 -0.33737668 -0.25914752 0.56843215 -0.034067497 0.016847694 -0.3079607 -0.034647506 0.33536488 0.324463 0.24000633 -0.21253222 0.3910917 -0.016667908 -0.388784 -0.5334016 -0.5970091 -0.6752171 0.41825855 -0.4810618 0.2421013 -0.4955411 0.24048659
